[-1.024967738117755, -0.9719398541949049, 0.7894266751242063, -0.9980516387270488, 0.4253589546144557, -0.6282122465850696, -0.8363016188569605, -0.9676818987118551, -0.9511777813242058, 0.6652479739585766, -0.61538758622747, 0.901535309100112, -0.3345895833819402, 0.6964252561394897, 0.5017800102093299, 0.270403683614343, -0.5144594352124622, -0.687832177579767, 0.5665164280489802, -0.2379024743842576, 0.17561163752444206, 0.6601331604661879, -0.021556338490235395, -0.5833289982991653, -0.5152950006989548, 0.950342122516615, 0.45017014914235626, 0.7654388441661708, 0.27369219649383403, 0.42959737859050284, -0.9649990013188611, -0.4792728481479288, 0.2866249774983428, -0.46303455836610574, 0.7268240335798043, -0.8709145443113803, -0.27464230359660396, 0.0337355588466573, -0.7691762303107281, -0.589943086388981, -0.13530340063625926, -0.7704326707265217, 0.9123665810275374, -0.2932183107155349, -0.3226848986935148, 0.38203723960198643, -0.25157981053917816, -0.06891723640629742, 0.18056116894217886, 0.04667327936659145, -0.3257402848271288, -0.13002538125299487, 1.0511304229465732, 0.937152506386603, -0.5497366038308135, -0.5099507897244635, -0.9924008924282676, -0.43689519306837277, 0.08928104959060539, -0.37252574088634927, -0.06806776146490585, 0.5629418214250407, -0.7922152846805609, -0.6358503725916609, -0.2562058474969899, -0.8320626626611742, -0.054283616318363884, -0.009846234513750891, -0.6081985765509772, -0.7688887395099482, -0.4837712030274764, 0.26443333040727796, 0.192403715741538, -0.9249271132992283, 0.9353282515816407, 0.6562891053602593, 0.04479544609233093, 0.13515772817144556, 0.19216008504520626, 0.038877589086615136, 0.4243594191768422, 0.7205614398590979, -0.009893264192172966, 1.0054416895768503, 0.710015755332836, -0.15659050585997653, 0.08423567226220148, -0.27489448323017573, 0.1754300546676781, -0.37903344850209825, 0.2687765102495144, 0.25214845645910444, 0.2404757633585564, -0.7009355054774596, 0.2600396667880105, -0.7744929768743058, -0.5619682428465101, -0.2406716402374984, 0.8733427380669854, -0.8688172153311097, -0.5039173557753992, 0.808511677276724, 0.773187813098432, -0.005662077347413689, 0.09375110057067311, 0.6762575846358969, -0.6252272526326969, -0.23258844026222528, -0.42184546121021355, -0.12252638900021214, 1.016755576403525, -0.13440986776456515, 0.4294236636909719, 0.626858235902531, 0.6251661243531308, -0.5372691572279272, -0.2062960810869972, 0.15068115593207235, 0.6751194437944781, -0.4238076607116643, 0.4593113651381226, -0.8825309980530395, -0.42532149902576044, 0.7539145137382135, -0.48431833562467713, 1.0750585674458455, -0.5720273515820661, -0.15036188312609064, 0.9635777107738683, 0.6683237581245995, 0.5833219478859623, -0.5585874788098926, -0.022282682167084625, 0.6535643190948894, -0.03796525476885617, 0.44590096609519575, -0.13368143252507073, 0.3311935508855115, -0.53674806370247, 0.2942656801402355, 0.5411207596210035, 0.854805698772847, -0.15492078397305056, -0.5671845930902553, -0.23810546559342588, -0.4954357705312378, 0.34882231566955807, -0.2618725401998178, -0.046383454008110364, -0.7191338651854847, -0.56531033167553, -0.4225000390436321, 0.3633016656345466, 0.16622118641857936, 0.583020324202917, -0.5004907209780246, -0.12775409410924488, -0.2515563652900874, -0.12479751062446874, -0.7878510662682049, 1.0519989456816752, -0.4220611036361611, -0.6593829986014187, 0.8748226420311124, 0.0836506006432423, 0.12488185766975485, 0.0443552943876021, 0.08943976590926242, 0.5310472523347313, 0.7251851999783153, 0.39199972444265796, -0.900564891587503, 0.4908807813858469, -0.29133709612775854, 0.8653285094857752, 0.2663304143899845, -0.8034906060316287, 0.694921189794007, 0.8889435444778115, -0.4122609835154206, 0.9802427519636769, -0.022997612607207812, -0.7609530639038814, 0.22246560604534754, 0.6672210530712108, 0.16927436955842584, 0.2660487956658917, -0.19367129447186793, 0.8049585842161551, 0.814644399315759, 0.36861774423581856, 0.7797923947127894, 1.055138206624803, -0.9086387703717302, 0.8965208715922809, 0.4141264728372093, 0.6827928096865652, -0.9812846785314211, -0.6580398584609357, 0.12092517178495592, -0.25153291370049174, 0.7358897807932872, 0.2970605049508879, 0.532963464714773, 0.9589269488150834, 0.21828728223081814, -0.6557093749349259, 0.9154012598272592, 0.14131371489811245, -0.5706111190151302, 0.7650444410653731, -0.8079504477326112, 0.009326218814274053, -0.9035982699809187, 0.4104653304378153, 0.8615133748513781, 0.0341459240029072, -0.20376694731060335, -0.031319783716806514, 0.783022585353042, -0.8547778745257982, -0.13636697298891146, 0.9857443012859629, 0.24099307842000256, -0.8357675912366488, 0.15787914139443598, -0.35470626807158656, 0.3344993717572662, -0.0356017925680041, 0.377610936159412, 0.6933412805734448, 0.5776231563097852, 0.7027940226915896, 0.7652131035206209, 0.30868633420515557, 0.7295054063946014, 0.5283595515463991, -0.8605092114602025, 0.6495284619735011, 0.9376871005371035, -0.1611202397023451, -0.6824368665222041, -0.28072967376272057, 0.812914100017524, -0.8173816008864028, 1.0577725230893216, 0.6586559433646215, -0.6682922573472165, 1.077580318908935, 0.9994518391667657, 0.9324161907965118, 0.44719357163656903, -0.5036091213122089, -0.2594328294440486, -0.7035661675903313, 0.5075519921826539, -0.7133600994206297, -0.06867193262827866, 0.3098342505980916, -0.518146245088981, -0.6213516161067762, 0.9368707816669263, -0.3088408384902287, -0.9149538649962019, -0.5400543059963705, 0.046190082044479906, 0.48715961040609507, -0.18647072887498947, 0.6788221809641386, 0.13153219412658182, -0.16076224773800316, -0.7228233740951442, -0.5323551262962939, -0.41868635967586254, -0.471762995625834, -0.7498264983680639, 0.08921558752692811, -0.34682026872630023, -0.8436349807878134, 0.04729109609238098, 0.8630411975454259, -0.04895599678909043, -0.5033839747934559, 0.014233334213776937, 0.7493968718505902, -0.10520068222036823, -0.6612909919777719, -0.2125186752660276, -0.0768416347229724, 0.07495638874948629, 0.01967446667486426, 0.649586758084547, 0.9185181730996063, 0.33283264537109625, 0.6355649333055624, 0.36705251885040047, 0.8576373044613229, 0.7345344531322359, 0.9346318270546793, -0.4443586057562357, -0.04342096079250184, 0.9188705396334231, -0.2830065637559163, -0.7642945364900232, 0.5254326299793709, 0.614377735377157, -0.5778246515201826, 0.4959582608474584, 0.45472738334019064, 0.6502728299669629, -0.8644693324665677, 0.5186578208119977, 0.18413566324987637, -0.01750519353130016, -0.7924347953656159, 0.1027439874003642, -0.03229990239631123, 0.4609927016633269, 0.8107559899551012, -0.5433052348853317, 0.314417659207737, -0.2731882002172725, -0.9068727961112565, 0.8105801508464754, 0.9493778549882519, 0.6995924549577924, 0.21567428156746546, 0.04647388224551082, 0.9511463944526223, 0.5841259608276196, 0.7984153209732137, 0.6179106943166903, 0.41237612907754406, 0.4185425384074218, -0.5916032780372114, -0.009386543958956741, -0.14212492526374138, 0.015240336199571153, -0.0942862758574824, 0.9233382550454033, -0.5733560870121402, 0.5643379225508934, -0.747385235331421, 0.42797774632656016, 0.8808567092000686, -0.33033626581102665, -0.7558301765481731, -0.5137499171669031, 0.10773735659953357, 0.870980781609102, 1.079482532215167, 0.9022314923571298, 0.22445065959090854, 0.6314119523643438, -0.07697880848079355, -0.6437090269942282, 0.7795709791620961, 0.8037907385453339, -0.0546496495877769, 0.8853643834688236, -0.3580972455888077, -0.5671000450118513, 0.028717497616212995, 0.8808570913827038, 0.941294240159037, 0.5247693719436584, -0.609704313193278, 0.43907473312877754, -0.9838795037028893, -0.676096147108132, -0.8249397580354995, -0.8219061233143002, -0.7232607453773173, 0.17508845448182836, -0.8718999589588021, -0.7604741906321281, 0.14308320232394448, 0.7208055516995754, -0.5707420870482992, 0.8217242149419718, 0.35474917668722517, -0.8211567431497319, 1.0423209599450278, 0.6774456951229754, 1.0446606357009083, -0.7363919850607639, 0.6668361677735601, -0.8003648660595097, -0.18213810932387206, 0.852343362747865, -0.8664999218656098, -0.46034732834714104, -0.07352516597311315, -1.0090922453176623, -0.32713472901484, 0.002880493244112088, 0.7479989060741655, 0.4141796930235649, -0.9609860053511021, -0.3340363490154548, 0.3370204932822524, 0.9852063533030168, -0.08563747000751921, 0.3614308835716665, -0.14756914341161784, 0.32925256818317666, -0.30564065419510894, 0.2806929738422328, 1.033745659286704, 0.9075789494388063, -0.25764763317309564, 0.13467050971432315, -0.8793216057107546, 0.9405094134073666, 0.5429666730444094, 0.13996069368202207, 0.7440635011095482, 1.0480007304786334, -0.594070772570694, 0.32936938059998105, 1.0033076951321986, -0.5357037411382399, 0.3902601051190328, 0.15325331079133794, 0.17170384914046857, 0.9264962327768688, 0.5971536416606983, 0.5719922943733053, -0.28630551125670217, -0.7196362840875398, 0.7741243608357021, 0.0032014761049937272, -0.5537079928410593, 0.04442319384057426, 0.7689154919986406, 0.8137640868405732, -0.8090905649069756, 0.47471326066663183, -0.3696483353511293, -0.6506385162739132, -0.456797214078209, -0.7487482575459368, 0.25783389435175746, -0.6166234037842241, -0.6843054734671454, -0.09932660141294199, -0.8129371131254335, -0.164774860335141, -0.3276258239971048, -0.8112497516794848, 0.7597850861239757, -0.30387086252935425, 0.7714198266432061, -0.4208278836928526, -0.7399961968758154, -0.25496534441801866, -0.0026833787902957474, -0.8783696111723985, 0.7943246060796727, -0.22262387238455103, 0.8916926285203456, -0.17787592906764935, 0.41860255546301156, 0.26725090896688086, -0.09889242903123147, 0.2185266882210141, 0.20189080997398795, -0.6486443841850292, 0.8336179997609049, -0.571423917796148, 0.7175428310000468, -0.4277293098096246, 0.30485007571931716, -0.26946260604473027, -0.2535130054724652, -0.4872952101330939, 0.4000993662926751, 0.1183292459799298, 0.46100428195650134, -0.012774293456607116, 0.6941001391511858, 0.05596982904241603, 1.0374355506418735, -0.0506912802666521, -0.19318225518136664, 0.4595504696783141, -0.8514555742041744, -0.9291473015608467, -0.5958415668830834, 0.6609065996699981, -0.9456184079850314, -0.4740607629932602, -0.29074055063307375, -0.17146586956791704, 0.4854828780632745, -0.09719633392345148, -0.8886106255705206, 0.5398014675287945, 0.664398084918425, -0.9180311716082954, -0.2549048320540409, -0.965478027980727, -0.530491444693646, -0.8035419633456601, 0.44827103142817504, -0.44254715180133153, 0.5877478486227763, -0.46836178780097243, 0.715423981112193, -0.8537641194502203, -0.29354323911685365, -0.15003723153286086, 0.04488032129327938, -0.8958012114867946, -0.2171673190121741, 0.22903595380430938, -0.25104631788513476, 0.21417164767480332, -0.06267368006680901, -0.9441804501555134, -0.09711091915468496, -0.4961760528989777, -0.7884260813769713, -1.0267936897277388, -0.37558730104594285, 0.5684368303229757, -0.4174377875601432, -0.6322445092809792, -0.009425045802533486, 0.38571204061114817, -0.20108789895657656, -0.424804801383869, 0.24655724012581465, -0.2495443090222721, -0.632102189409719, -0.3286275377520396, 0.3808206241558066, -0.20095900403829822, 0.2922408679135986, 0.5729293821780007, 0.3448272656104862, -0.38179718468476626, -0.6966498033903854, -0.7245593915676475, 0.41550993497964095, 1.0473156555160683, -0.037270746551223005, -0.22569676941681935, 0.9690321071201671, -0.5906222324038496, -0.8059685545732151, 0.07849023846439067, 0.6596517981876994, 0.3311973959754184, 0.9357313546373163, -0.16785595802904904, 0.29082084772573286, -0.5319177684159682, 0.5756157705158735, -0.9957591969904834, -0.5420433701642489, -0.8870137507691234, -0.4667539480301368, -0.3274763090796938, -0.7873386110821486, -0.6177044933376337, -0.552287766789808, 0.03925841068411198, 0.8592575944393034, 0.6995899480320117, -0.5840114426569507, 0.36339918818582967, 0.5871707372601899, -0.8111679730845324, -0.2734136768556778, -0.9741057475416994, 0.8180891784417215, 0.9001184909160598, 0.4037909085303169, -0.13042648323023678, 0.5048803953185697, 0.2492888621756299, 0.6596514882552682, 0.1617851751448948, 0.2870620599346391, 0.7764480269300272, 0.8959735760396957, 0.0066198713914903005, 0.05884828757363759, -0.34032809139677356, -0.9680992156294036, 0.6501226433870692, -0.410775173680003, 0.21960314290451455, 0.02326871469908361, 0.8548733486282392, -0.9614771930880859, -0.19666364250753124, -0.4896751562441171, 0.17812072924853242, 0.5071483637925016, -0.528221242160639, 0.20339234584614554, -0.15925292890766185, -0.11589468143601818, -0.8110424792910731, -0.6065909094693357, -0.6358194176526536, 0.7082951515470507, -0.7208290500698408, -0.7947784147258431, 0.4574172730470613, 0.6153698799916403, -0.8640127556148645, 0.3045015220026213, 0.9921679881116025, 0.3336278609416102, 0.9924832357388305, 0.5838793381111026, -0.6512382859824764, -0.5066104473201237, -0.5275387068472215, 0.35712627742846165, -0.6519216986258554, 0.7379523913637721, -0.18657630703454095, 0.11763951830934496, 0.8098447310080356, -0.4861086886418867, 0.39003387128831113, -0.057935126341997684, 0.32985202828142113, -0.12383188802814557, 0.3138269313246597, -0.4692572945745869, 0.7463650539145879, 0.05223267916695657, -0.3711696438166091, -0.898482670585665, -0.5970110731330294, 0.4212799292911677, 0.1857137239753667, -0.7821997311090386, 1.025440256606946, -0.2357479931759767, -0.9522631503247151, -0.6727724653098711, 0.7962459719631941, 0.2047615374177425, 0.6023804667162364, 0.4968733585843467, 0.8194746558851911, 0.3990578156191688, 0.7761942705884851, -0.6222546397792059, 0.12330350573214155, -0.14883184421125256, -0.07370261256274542, 0.1722471001566413, -0.24703479861415495, 0.19124526702571543, 0.0971967797454026, -0.3296627032494593, -0.9127204737800668, 0.16279582587372526, -0.6518581404895258, 0.29482771971850125, -0.5790049487364586, -0.6896348963046617, 0.6770781002783712, 0.618004737587671, 0.5617135983014632, 1.0058645576810743, -0.5881046281193609, 0.03411709706743003, 0.2892959771283268, 0.13322694077248698, 0.8486946517577748, -0.37944278730972325, -0.2719650533383132, -0.9136076645685922, 0.9422861095479312, 0.9523457791216746, -0.6126910874078849, 0.6800829832008796, 0.05057091538479747, 0.1138316666383977, 0.43747899084947467, 0.7982234825726129, -0.09250033531976473, -0.7387442579763498, -0.8771869802032611, 0.9213657455480333, -0.4408482271122212, -1.0040099023581284, 0.022500269566937098, 0.1938797291900424, -0.24246646209801656, -0.5142099218376701, -0.732305768965629, -0.3282052750833683, 0.7060932496346694, 0.1896939269290282, -0.9321888104647036, -0.6045407928850653, -0.6184933847119023, 0.8202702079486247, 0.023462741850638315, -0.2645219159638875, 0.8255747202199162, -0.3567880879627603, -0.3948354970116558, 0.33097598971768316, -0.5368154584181264, -0.6348780827104304, -0.3747484285230201, 0.6312531655414269, -0.735441553912421, 0.915270010364218, 0.25656012431956354, -0.8538583009728847, 0.5895563090326277, -0.6640130652670052, -0.7894064488825859, -0.5650715845828949, 0.37802297553182196, 0.7052359518746433, 0.8521637658438026, 0.05855134459816774, -0.553480886186391, 0.7102958426591007, -0.37200329247721164, 0.8740782268425223, 0.9163931018218474, 0.21842239548169023, 0.3658358657338696, 0.7715934364453138, 0.5911348948823559, -0.6620542182315569, -0.3797518820996161, 0.8562232958786374, -0.8585175608247382, 0.9285817857617551, 0.33799243797778034, 0.32277146953352504, 0.7196641256884144, -0.20910837572781366, -0.12824313567785744, -0.0014084905409804116, 0.12842787592345595, 0.9267556366660061, -0.5001072726764081, -0.035515952947269634, -0.9798886190439382, -0.5826442337927862, 0.5361145128350612, 0.9119522273706346, 0.35258974746160493, -0.18311839708609054, 0.9105307468824414, -0.7649533443589376, -0.528333361443857, -0.8137658427373835, -0.9315272744618737, 0.749035839542702, 0.3890435744102828, -0.3929894478757818, 0.48632684133050325, -0.5759781548176476, -0.6503834333473563, -0.44996987910534064, -0.8364336613431199, -0.8915811069606863, 0.10820588001396969, -0.9409820330699454, 0.6923957315489975, -0.34247814181530883, -0.18136797387883988, -0.6101455373313239, 0.9294723275642459, -0.2087051363892948, -0.05174592658157262, -0.020304830471752754, 0.7443361979782269, -0.5041882237589093, -0.6701936233717843, 0.4759180500952987, 0.01066934002970587, 0.24249092369490372, -0.7810992343001694, -0.3207684099507956, -0.8446340878840091, -1.0113344343000532, 0.5174457429830014, -0.8552137418305427, -0.6775187194187632, 0.05824859285107309, -0.5562919662081427, 0.615882309851533, -0.24819247113334386, -0.1070602153129257, 0.13143140288468907, -0.19333491523048793, 0.8752929538640467, 0.930390647295068, -0.3079861371796904, 0.9052175707286163, -0.42196192340614563, -0.7792767055811664, 0.43165545075413275, -0.9725564793194711, -0.8852757846875554, 0.4713064070514517, 0.6598625383735107, 0.5123006833065145, -0.06893291862161233, -0.14329371884294553, 0.5116425437958758, 0.7334068305505765, 0.05151243175005083, 0.8880215929436003, -0.6240697787103955, 0.7162989950077394, 0.8957604369953441, -0.3193474495792387, 0.30285272917083245, -0.09004609606548021, -0.31268286949801144, -0.04159089245385147, -0.1057490785537504, -0.017106961461833818, 0.8319542809181271, 0.37570435283817577, 0.3955792533466728, -0.629891895404468, -0.8246146053270651, -0.27969072688593033, 1.00216609755146, 0.7144111420676427, -0.06528848280278601, 0.27329379224929934, -0.6777276916257702, 0.6200599687397454, -0.0798176174377896, 0.4335645344054954, 0.028398258471541843, 0.25072679729278813, 0.2027389831480734, -0.22806822845147443, 0.5431803923307831, -0.24825235878179344, -0.31612087217078233, 0.2108551745145861, 0.7356642047876001, -0.36093620727008574, 0.7609543927633285, 0.3180122161623595, -0.6805202440141983, 0.40620658512804386, -0.006562359844429998, -0.05285593435509354, -0.5843620938408695, -0.9621065448868441, -0.5443881746267224, -0.47492113043429773, 0.15146562453302082, -0.6140029675390503, -0.8487017311653334, 0.16329054839155352, 0.4334908869192402, 0.44105218287465875, 0.965402538047176, -0.6153859657236318, -0.9080010065492313, 0.839221957730068, 0.24794621186770163, -0.794654320269706, -0.43730465566394405, -0.8876789807915952, -0.5267231082412843, 0.19119650190648094, 0.8548377227161806, 0.5994677641848911, 0.293528008424763, -0.8400418659121041, -0.0016614032080038657, -0.9744532686955981, 0.29979321080417914, 0.4736940020860784, 0.8574534284747032, 0.05340090290122109, -0.34036390719748044, 0.07957224030709824, 0.9314415226773347, -0.1455276930563144, -0.024925926529393835, 0.7549848504475856, -0.2777529677817179, 1.1179216056007062, -0.520583078144326, -0.5098891103657768, 0.4870968235958607, 0.9179208576829097, -0.9454006422420947, -0.09024217390484525, 0.05941428097439373, -0.7548117397283723, 0.8432033782259833, -0.6769244988931019, 0.6370324770915023, 0.9220478962806963, -0.9213004762978756, 0.25478644456122357, -0.4728966893345561, 0.84261498573549, -0.02383834580325282, 0.5704929394845112, 0.6753122326655677, -0.4097972700899603, 0.1185381387265551, -0.86845283119509, 0.07696940554047871, 0.37747298774820687, 0.13471744529888044, 0.1981579447417529, -0.4545027843551018, -0.01574148313234017, 0.5894932931165294, -0.6511270996702183, -0.2071607464060317, -0.6733593365015548, 0.18009053490381127, 0.7591043408606969, 0.8199191132533352, 0.9126992450496547, -0.847417615759303, -0.37810861792596434, -0.25076089677236046, -0.8084671428540541, -0.4534305253973134, 0.11273492743058225, -0.6421085405599849, -0.7019329254683268, 0.6397702131874621, -0.37817249104190226, 0.8835055060788769, -0.20497907069941096, 0.10983600552437155, -0.14326255388215092, -0.5219269227091132, 0.8404658353139222, 0.33444831539179093, -0.4022697935032132, 0.8430169975568484, -1.1020805155475368, 0.7069414077082105, -0.9834478645619761, -0.8831156378629867, -0.21177815026193736, -0.286370649233684, 0.6505906886527045, 0.785340550388767, -0.6628147613605321, 0.379140461932921, -0.9258709380395683, -0.15320948408080914, -0.6409950790503024, 0.2719428760488398, -0.7390224920982554, -0.01601250301775523, -0.8871107258586963, -0.9382977567041082, 0.6137807599525569, -0.09143760396035856, 0.30616273372802005, -0.3998948023952181, -0.3896070418239204, -0.46997823478434025, 0.42527229396848504, 0.6556037834281474, 0.38950869757813683, -0.8443947803622346, 0.15554203500691738, -0.3250330615049461, -1.0331268294123912, -0.259726473732245, -0.22020234751376794, -0.16176173935753174, 0.08386516894788475, 0.5777855544803582, 0.27629966942873235, 0.6061371239996525, -0.181649855796756, -0.2564306934763231, -0.09834161355349814, 0.9917819108543625, 0.09662233024308657, -0.913186629633456, -0.28772298595707757, 0.35587727428597793, -0.9220483723442805, -0.7284749989517278, 0.05382592648076771, 0.7128952684670392, 0.5658800564324762, 0.1985787841323604, -0.48743187047425385, -1.0235148321296446, 0.4039756915856696, -0.9639092764453363, -0.21703674333096248, 0.09569763553760904, -0.7725437005772136, 0.10278171601064856, 0.6586284461582455, -0.880339270348084, 0.6844428876909124, 0.22951527777425326, 0.5717360598991963, 0.18807296613417643, 0.34053473718751426, -0.9524407480887642, -0.4760091002363067, 0.8830769743511533, 0.3302532017905261, 0.05519056830980337, -1.1758684221139535, -0.5337499858547885, 0.36117202841545337, -0.7344690278814816, 0.2628603598514306, 0.35209932399651983, 0.38134739977695675, 0.5242462496936567, 0.16309638616670338, -0.22453233460696875, 0.3859581172372006, 0.5499696909103979, -0.26476312142502817, 0.17719759182875316, -0.3177072522449008, -0.9029754242275684, 0.09947202634060337, -0.2540388152755102, -0.5532259397936123, 0.011130827628284006, -0.5463894868911471, -0.032689862173823636, 0.5991091559296144, -0.7502323130551092, -0.09323109886294703, 0.8365129018047902, 0.8669602501083207, -0.7989190483136749, -0.8104805501943769, -0.4345594791167085, -1.0391259230026066, -0.38450282087328175, 0.18813960129449572, 0.15780171417478536, -0.6157826984552585, -0.41052354580495376, -0.031148626905668948, 0.7604931223873455, -0.18171334340263004, -0.6797222627687352, 1.0574369287056777, -0.6161083346011788, 0.5595762217647748, -0.46119034273375464, 0.4507227234962557, -0.33030504326612375, -0.16526868688014792, -1.0025676941262498, -0.647353273457772, -0.05356438073671647, -1.0214777012837255, 0.8428433823444105, -0.33297211596430376, 0.32041343126997507, 0.004060990415537634, 0.6242710250986908, -0.5050132318380879, -0.7810523074254029, 0.47252866825890405, -0.23770376051862388, 0.2690199815475778, 0.49281981740690195, 0.4149174303507329, 0.5125369224553956, 0.4299924454781604, 0.8388269339843865, -0.2611074999149862, -0.21745716643563998, 0.2565785786694427, -0.4082919964459072, 0.13040629170780163, -0.7145329517362969, -0.7490614656630619, -0.17658091320327848, -0.5407060550976348, 0.7587005806160959, 1.1870558427456301, -0.012244901896973259, -0.030188968123371393, -0.2827536322440324, 0.06362339361492192, -0.07821732669974724, -0.5094391702407429, 0.691832534731953, 0.7009297332714567, 0.29571621187198743, 0.41288139294552184, 0.729895531629753, 0.5169375803495363, 0.2983690883062988, 0.8367063023942588, -0.655638106289542, 0.17156672219110752, 0.9589049347422299, 0.5810129404224595, 0.8721952127068018, 0.5038908149813612, 0.12267934010208595, 0.07872184790855138, -0.9135927946799468, -0.6870882155076545, 0.2200272823991196, -0.7922458803078039, 1.0374934600925143, 0.4730279135468892, 0.8316129626975891, 1.0393948535154487, 0.9087301932155817, -0.059296697743522635, 0.6198825490505548, -0.7259128390372459, 0.3657108756983642, -0.7316540914230393, -0.2991258838201648, 0.8215765074044749, 0.3732266619334543, 0.7804338288869873, -0.7471392395361639, -0.13471151368988363, 0.8273832749763177, 0.7379970971920691, 0.5468758880436219, 0.41983070348263873, 0.03884355250314144, 0.36423743538202713, -0.331460318034649, 0.7494466703171825, -0.5495665829049634, 0.6781710103673274, 0.828362469824913, 0.02217600825214467, -0.05149020798912276, 0.594525668397339, 0.22104501391112027, -0.33752939799087167, -0.3542432652830636, 0.923515367737982, 0.23426880112149862, -7.009246862451036E-4, -0.30427192962339467, 1.037402771582457, 0.11828110523695338, 0.8295191963773925, 0.2635855963394737, -0.6498552473781123, -0.6097889259242478, 0.7239155927389164, 0.6478349017071523, 0.1674169938196586, 0.2585229189454091, 0.4469222920430448, -0.8241905716699272, -0.21417915663115328, 0.7918429489351634, 0.23133392101396663, 0.9518062139986904, -0.8282340368467909, -0.3308187786800133, 0.5228037465662365, 0.8269518964960326, 0.6776489710889448, 0.7869719747174285, -0.49418807682359867, 0.11278232135132166, -0.01738380035825762, -0.37012485668628037, -0.4455627276496059, 0.07639891889311819, 0.9113136876156399, -0.7219450974902154, -0.9421106421010716, -0.28802692962822485, -0.48092190776581684, 0.7675275782408684, -0.3776934392694717, 0.9735084181456944, -0.575558296406606, 0.9784205115925249, -0.3044675229627254, 0.8014998406667433, -0.6685771363066352, -0.9615248175731758, -0.14763369386563008, -0.8012696338095082, -0.5186049294686028, 0.8829498709623272, 1.0857009498182788, -0.2563397632704969, 1.0370415990642323, 0.1420469423874011, 1.1505599857769848, -0.15233507838639934, -0.107528242107161, -0.7960302236648805, 0.22637812703399346, -0.09269378182016139, -0.04953665031320395, -0.44561958347900293, 0.7381167721444997, 0.5798170456187371, -0.8618155795658633, -0.7538250597728157, -0.397871571767333, -0.3169895200379056, 0.7463424035979256, -0.055368312187016905, 0.36004201553449267, -0.6061714323103484, -0.6145544162253589, -0.8855158269092089, 0.5325630986088379, -0.5844723901836856, -0.23230381774925296, -0.25559855414488325, -0.07947447834795736, -0.9170573176248273, -0.3488099193916181, 0.59090366641901, -0.28072503491946793, 0.03554631924045774, -0.47033187260263465, -0.643674475658766, -0.5010800518400611, 1.121302078052065, -0.06535447164065623, -0.626827677257509, 0.5397407244985757, -0.6448635912147043, -0.16467688118792176, 0.3468123711692988, 0.8593808693412102, 0.3917035042494306, -0.6335904395544234, -0.6271475733550786, 1.083017946162596, 0.8236917320263581, 0.6883751321943898, 0.773905029587298, 0.13259725489108792, 0.5730033492788988, -0.5278035383712502, 0.6427221950606087, -0.46394656398792716, 0.2288376295033216, 0.2256154433599347, -0.35185550477878863, -0.5141853712109027, 0.9140829833067164, 0.5976611208062516, 0.0560913474901037, 0.6298944138667567, -0.8801066983121756, 0.6721997809782794, 0.30188465080378024, 0.6484355919920984, 0.3438470728420073, -0.12075171081351489, -1.1861826092977081, 0.6566563015631388, 0.9493856252258357, -0.4029772526800139, 0.05335280423308264, -0.3245500099402333, 0.7731175489534376, 0.1565142905315933, -0.6382833543176106, 0.3990408685543509, 0.24604650994521085, -0.024491738145258266, -0.3520211812720056, 0.9424853473836713, 0.14188398840803534, 0.9355550800711661, -0.18275501974188507, 0.09170896462680929, -0.514975887982377, 0.980377505771045, 1.1597405420278326, 0.59813420020318, 0.8800192452176199, 0.0857790280050176, -1.0068084192534639, -0.3854033356373775, -0.4945066803719997, 0.02234617049895668, 0.7595086828958775, 1.1220552259317331, -0.5824904266781421, -0.010539132589995939, -0.40408672107579735, 0.6336981123157597, -0.6707710343325588, 0.6027441007445812, 0.7046993481798609, 0.7749976379120882, -0.06262420486894368, -0.005885300608423223, 0.657198293100976, 0.30358184197740123, 0.788699787805198, -0.7648006389629004, 0.04202365422771864, -0.24456284992366847, 0.21622899305028354, -0.48511573230978866, -0.12180169900264137, -0.0834598198317281, 1.084741869159732, -0.05982300946043232, 1.0648681690082422, -0.902047238086116, 0.9113591523676668, 0.48161258092977105, -0.713720091232609, -0.35400792507084694, 0.27598631494388715, -0.11211430301318921, 0.5320187843783349, -0.651919322243076, 0.5364712006846668, -0.6335725244232707, 0.1018308745041022, -0.9459696427508818, -0.670370267629583, -0.49018084614917806, 0.14369335387606463, 0.3526794259751177, -0.8176999803940684, -0.5999483156842855, 0.15940824598606348, 0.4161127158540796, -0.1779781518514384, -0.6309460801978792, -0.6886635309135928, 0.16582790328256752, -0.34488872549263333, -0.22571123666132173, 0.37221742648794703, 0.12212898133771946, -0.20112670431958043, 0.13872409538893754, -0.16742009706359132, 0.4925264055684617, 0.48058056760910556, 0.8190998872207208, -0.5232670282870775, 0.756058982488567, 0.18412199240178065, -0.016239844384778046, 0.8480547296969725, -0.9335518794847162, 0.6308075400177594, 0.5519582678223466, -0.3301307863130008, 0.5298994721425685, -0.7419217115196193, -0.6194065001719273, -0.25986466572905287, -0.605473864717236, -0.5035668474873071, 0.6630829276786415, 0.12443972071276468, -0.9059513024513756, 0.4750500298540189, 0.5093502614987119, 0.8945427540205022, 0.3507725539351028, 0.01916531641861079, 0.6681739104823324, 0.599678531120277, -0.2757515019984682, -0.356889057218694, 0.2883593571373187, 0.3054208139431257, -0.9129562396316675, -1.0031973467890474, 0.6077673385616231, 0.438747652495142, 0.5762270106416003, -0.36257429401346464, -0.43307955842444396, -0.3632490458228664, 0.17682504049920053, 0.2933347719547327, 0.08405381700211888, -0.5143849023392416, 0.49222390609981487, 0.7073038538767631, 0.840766257441494, -0.5946033905408319, -0.9107384745586209, -0.4314712285147183, 0.38371312286099035, 0.858470895763129, 0.7788790825968351, -0.777204549462256, 0.8246186467554475, 0.8676851374428046, -0.8640377344868123, -0.290070027012021, 0.8781476846631173, 0.009546524174328308, 0.6312236548025248, -1.1028695071590318, -0.8975050895202524, -0.1334648361995643, 0.02325956394556873, -0.7880285577263907, -0.6672381260804982, -0.430080221959239, 0.7301587057881913, -0.40072394973626824, 0.7770546284650397, 0.6429606987367987, -0.042701213376992724, 0.3351351942443775, -0.1330681750567635, -0.17376390414613213, 0.5687685228370032, 0.48309005637650665, -0.38748530210457965, -0.32657275886276077, -0.1352470947862082, -0.19046282397765682, -0.8845501616959698, 0.4257477443694115, 0.9065770841874168, -0.6115125020561113, 0.27063419997313587, 1.090709276838261, 0.9409919473096313, 1.0062121623526457, -0.9487683015700736, -0.7966234611949513, 0.2934708419936313, 0.443987891905629, -0.9040887512099333, 0.021445684097367176, 0.2831643193385516, 0.602655917165055, 0.3969418351109887, -0.14001437779545234, -0.035138988336226015, 0.7985172637670099, -0.670725816070454, 0.7885475601396795, -0.6622108869769804, 0.39615621368546733, 0.38086804735135005, 0.40160609022229515, -0.6116763796171443, -0.6947799356972182, 0.3434611523558399, 0.06490722222051576, -0.4435122376000332, 0.21398217505162814, -0.05218836253965708, -0.9764724947803706, 0.8042914625076841, 0.9899099612196338, -0.8233592045719317, -0.6399330717467558, 1.0239755523806415, -0.4701217905280999, -0.8209205861931075, 0.13474329788475703, 0.37763929252701317, -0.8938113048718955, 0.25409411197208726, -0.30257104322511585, 0.6521892398177551, 0.5612906896533183, 0.056597668226811504, -0.1333036697967818, 0.8482824229877557, -0.501184687160131, 0.19315595648905387, 0.696468244260024, -0.11332882401436463, -1.0851253579409352, -0.4772805578200799, -0.8998962715603638, -0.2549555602047853, -0.4995016121931761, -1.0172122385384486, -0.11584939540798231, -0.4020827797253195, -0.8569840039217811, 0.5871247183321112, 0.4497758916846692, -1.0042347248362113, 0.8734298327189236, 0.8670085116108335, -0.6966549969527502, 0.9483978252255099, 0.4737717787916048, -0.5782813334424451, 1.0237093800347994, 0.8647593571249139, 0.5562381210404417, 0.3869107598013253, 0.5749566831093041, 0.6324659061174088, -0.5800115340296305, -0.6764334041488304, 0.5210476946280191, -0.8650873566755672, 0.6416818597745118, 0.4549259360461931, -0.9147195833402667, -0.1693293572843324, 0.6386351133548395, 0.5367376734293215, 0.4941972445418797, -1.046380992979333, -0.45925950694296447, -0.061359185807395904, -0.8177298807496886, -0.7686540192899625, 0.9886764085775761, -0.11956132522461242, -0.45401217067043126, -0.6387435369123049, 0.46289628055199006, 0.5110103040734072, -0.49916490746142905, -0.9768272894099194, -0.3062403151930238, 0.79854240760051, -0.6960566339169817, -0.37745732914190244, 0.1907106016834326, 0.552767874038108, 0.7674921148804833, 0.22815429868438777, 0.5439399552431498, 0.6083827346279406, 0.7622141985466934, -0.4411095082891649, 0.029722171863649914, -0.08091568328743713, 0.9114083252058844, 0.5264507913922374, -0.9831148517428705, -0.643914297645362, -0.438605544490403, -0.47797497086687396, -0.3272896711739609, -0.7457540201768524, -0.12349806233346133, 0.5483052490944077, 0.44513658673228645, 0.2171003697633933, 0.5789544622177808, 0.039752103840815366, 0.6880519095701213, -0.7476382900490451, 0.5761426801749953, 0.31079186961494176, -0.9079272338609711, 0.15826055724842839, -0.6453008973970449, 0.2321049381042454, 0.23175677189125937, -0.8254821427319955, -0.5017109419673292, 0.26165509091978495, -0.22182095984678543, -0.8618701710771742, -0.8324760654161931, 0.5839128647146629, -1.0026815060652503, 0.26513865847854584, 0.24622254436387975, 0.34843075467401124, -0.9774086677525354, 0.1021517694189422, -0.17273792787094086, -0.8387847458103703, 0.7646135699196303, 0.7777667757503444, -0.3474741846512653, 0.3980959552285362, 0.5094247593175769, -1.0253946304757888, -0.012295724429898203, -0.504928779133313, -0.6069311240554435, 0.899220654108486, -0.4588838134043365, -0.07921722090330333, -0.3718292406524667, 0.8023180859272387, -0.8828107379489988, 0.24338955100078555, -0.06979272322621925, -0.906563991792304, -0.17096612884516513, 0.7573225329745176, -0.80279171768003, -0.4807330401140425, -0.8083798277945299, 0.651006430079356, 0.5567340620874871, -1.0161594873927875, -0.005063329663679402, -0.7496798018437981, 0.2563588923496203, -0.40725039724000434, -0.9764067005590349, 0.030328284390699962, -0.13307024044111976, 0.4219519111517417, 0.19435432992624824, 0.143140551813944, 0.174145829783406, 0.04005087855641667, 0.8879732241223904, 0.38784608585133346, -0.7922755367867703, 0.591574633061133, 0.18380109835770578, -0.2691907046925872, 0.2995414661716808, 0.35867436497519706, 0.7569970209209002, 0.15124496302415885, -0.2836205226010701, -0.5964075466298058, -0.9185618891923221, 0.02941086294747277, -0.6265198194761208, -0.9885075972293472, 0.029804150915580904, 0.8302284154454374, -0.3704049863936199, -0.20516852524580886, 1.0300570692670143, 0.6637050675535943, -0.5375519556280679, -0.5829718177989053, -0.2541383726137996, -0.598863661590068, -0.5681805769252743, -0.6849555422740394, 0.08398867566306406, -0.8756300540164053, 0.6198450453126598, -0.08870120356925904, -0.9683938650791682, 0.17923775391363264, -0.5288436385099313, -0.8992674879933372, -0.7722628805178924, -0.6560131232399801, -0.3421915278023205, -0.03453228529754909, -0.500863817319215, 0.0700550065821253, -0.9271815770757004, 0.07803246480412918, -0.6346141836337544, 0.37410210006647676, -0.1854614643184512, 0.5054601754761747, 1.0142851807928819, 0.5646089394691767, 0.19158555044250222, -0.9652945293328161, -0.7127048503967985, -0.27266111547504923, 0.29108356876827596, -0.3658631580092345, -0.4387505740913524, 0.5437214129802032, -0.6060069597818002, 0.8872582324126999, 0.21782698636620068, 0.22697947984996739, 0.3937547117271581, 0.6575094662401798, -0.9083896791742945, 0.5038712947138194, -0.8807610177709528, -0.08170698677097585, -0.41057797585669525, -0.18624441186144394, 0.23654838278917725, 1.0234450504401849, -0.47257150852663526, -0.207996447777795, -0.1314093239705695, -0.24119034894985908, -0.010871574261013288, -0.47679298570917683, 0.5667935988430197, 0.7706533155318362, -0.6498590813459011, 0.701185928074228, 0.297283124621651, -0.5657112236181571, 0.10503983074785658, 0.24963528052199863, 0.7114809875513098, -0.18515141761195034, -0.358932906940179, -8.920227270208903E-4, 0.04872505094844099, -1.0132070494933754, -0.835895996206047, -0.04875385553453752, -0.4806077200921434, -0.3402959265007534, -0.2799440961488415, 0.8009944818494532, 0.35025344713317286, 0.9043830985980469, -0.5236530158242605, -1.0283830157488159, -0.28247861293125953, -0.5533526969873523, 0.7638631774687196, -0.48710010398430703, 0.7759814159055416, -0.3786209588223567, 0.929417695326352, 0.36851708474556755, -0.24334329228095425, -0.7802715167180729, 0.4574104377185343, 0.015510361214427466, -0.347410752561682, -0.45530782711725576, 0.07297377936118159, 0.1527279370361998, 0.7708144553626493, -0.007837616172785571, -1.2281744136826709, -1.0059038267861657, -0.7464607217081052, 0.6817892034693848, 0.12403448482777048, 0.4278025459024683, 0.3728794464160803, 0.5403669818794243, -0.8673471244288492, 0.5458488480852997, 0.03500492902483786, 0.054183674598363825, -1.0536182431835834, 0.7668535270339792, -0.5683495282455684, 0.536774483135721, -0.5537933042983955, 0.05646362741764503, -0.187759654126415, 0.6391070437449997, -0.21629609722146192, -0.6627191125232051, -0.03676928382567363, 0.5469728740133036, -0.6810404051262601, 0.6772992285409093, -0.6959401637021724, 0.36508317748545854, 0.6641249571645634, 0.2480169818712, -0.6844764000387323, 0.13120834718524751, -0.6305372713495644, -1.0110830214479027, -0.06567308081332074, 0.05851453041458163, -0.3773237426245796, 0.6778770908485179, -0.8980513772311385, -0.15350334999969384, 0.6556283857904119, -0.882337079742149, 0.4537985032861324, 0.42124174124737224, -0.5626485726488483, -0.7092816411685311, -0.7388485204282494, -0.8946575936672914, 0.7389145079135819, 0.5197904488726859, 0.0149357863545406, 0.17702661836181027, 0.2459594049150862, -0.11639850447988102, 0.6590633027716851, 0.28204887633268466, 0.3041196458578858, 0.4693999660362795, 1.0074881377717737, 0.2881175901077584, 0.10865124578581165, 0.8126794226799154, -0.31746725592805325, -0.23078714965658906, -0.030949298456472808, 0.935850103883724, 0.3712200044542078, -0.6876892661237424, 0.35558218242450934, -0.9743985750667099, -0.06981167512265489, -0.3306796145426593, -0.37204003431897054, 0.5077047683610029, -0.7277921804237502, -0.5445423744204196, -0.1133330070690683, -0.7356228828968163, 0.1138300904491824, -0.9810164052858705, -0.6819051550721641, -0.7318640845144112, 0.745441996557492, 0.6559365657996697, 0.710802315264956, 0.9226117074596148, -0.42624027414806887, 0.7845351008938823, -0.2970343069688788, 0.2667735511943257, -0.6657920284972554, -0.5297187042455737, 0.8963050931691108, -0.418082677457048, -0.07238419330775385, 0.6357700216024709, 0.6217466004324127, -0.13780517591463423, -0.8836934680151031, -0.7549285473902727, -0.530538560772788, -0.8578176790891693, -0.6316664808166902, -0.8998639535184608, 0.5511215423333228, -0.768947377802475, -0.34825766027176436, -0.7418150769253652, 0.5577165583505651, 0.6383966726878204, 0.7326819374796653, -0.6667489932768313, 0.738322460711289, -0.0772710852247413, -0.12282602353856449, 0.03867933239842076, -0.8079198732028726, -0.8814552860341914, 0.618785655483398, 0.1300643810105484, 0.5521887148425668, 0.13973996087306298, -0.4865243192321837, 1.0553981140631932, -0.33036235641125195, 0.6839972879395544, -0.2390752466381067, 0.34019614269143345, 0.1258541514226047, 0.6521756336256674, -0.3666318316835323, 0.08883715435159267, 0.7285855960093387, 0.27354858111429214, -0.8527828918347645, -0.3812012453154703, -0.05178289176585067, 0.0733280463403813, -0.031172733970100612, 0.2662084825846121, -1.0450647481598812, 0.7122071897083834, -0.07014039945643208, 0.4057424865175754, -0.1596895574779987, -0.18798310213641997, -0.18948215353417744, 0.5968099930217742, -1.0191631835439525, 0.4691156009224204, -0.2250233553004786, 0.2886010175973264, -0.1361210128716868, -0.6703694939065908, 0.11879503592190878, 0.4655923129022388, -0.36591932966147445, 0.5659735242332075, 0.4780626938345218, 6.740392924221209E-5, -0.012152422985333622, -0.501989953189504, -0.12217437479204064, -0.7094703648785594, -0.6727370748077911, -0.15640864216176117, -0.1559738729785573, -0.7879821577741724, 0.09888583440300865, 0.7154723511489841, -0.9823453462314482, 0.5325437207648209, 0.6043758075458405, -0.25524611204117553, 0.41800345756818613, -1.0606094635568795, -0.2683267757826542, -0.7112040423298812, 0.6071818992623553, 0.23683116073542493, 0.6015833662814188, -0.6778268613870477, 0.42242497603942925, -0.6390720855346202, -0.945489669083995, 0.07822288017579954, 0.7717349757905354, 0.43278979857355454, -0.39596898133263114, 1.2690543966219727, -0.7801703731459926, 1.0250664403790717, -0.2998816699525186, -0.24654359124021333, -0.431287719815385, -0.2880989186958084, -0.4803136760144474, 0.34312773082478987, 0.8132910010135167, -0.08078148037189234, -1.0570647144178948, -0.3195510658293756, 0.4594884599789098, -0.3079591001835277, -0.951200658788331, -0.7368537178004806, 0.48907918448278725, -0.7895401756667662, -0.5991969715612937, 0.15876090093871295, -0.9197554261123569, -0.6735797192817424, 0.4487770555152488, -1.0777379860001133, -0.19361617254639207, -0.3914094156055878, -0.3662802695012433, 0.32517710041678133, -0.5591739469354228, -0.10367169739402267, 1.323349256266264, 1.1567866499641306, 0.049006564922867264, -0.3121219512128989, 0.2809905244826051, 0.7543381588696566, -0.5730849149986271, 0.09964058958893558, -0.43128022790612713, -0.298243680575027, 0.860448911497855, 0.3455264323227506, -0.47619439218394977, -0.7927550583349001, -1.0103779300321005, -0.13319811659830802, 0.48036574359984685, 0.8319721536614774, 0.16624132338164715, 0.80110983715475, -1.2169544482136259, 0.640556148228835, -0.74083326670654, 0.017141386201792907, 0.13142649241473026, -0.6510413072058197, -0.8271377080400931, 0.8974447897651596, 0.650611416132888, 1.0804967230029556, -0.030945384449325465, 1.194337403483571, -0.16246064902368884, 1.4809898851757894, 1.3433076047013512, -0.2341169289569024, 1.1408369568641974, 0.7250420493893148, 1.5402077300734978, -0.2941188342856348, -0.5092807892703086, 0.6148996034812994, 0.7301253064755464, -0.28368966207657476, 0.005712152532444587, -0.6526250474536869, 0.3583510675203876, 0.17747872222425415, 0.5408354836286723, 0.35818204057679975, -0.6923883828888382, -0.790909912055561, -1.1737280954064764, 0.268040251535152, 0.5749345979070862, 0.35101256262989644, -0.778471407252001, -0.22386186821931414, -0.3044416934185398, 1.0242371808753787, 1.2241017421965632, 0.2932796085087877, -0.21062515282170144, 0.6076492739732986, 1.0780698208108535, 0.43629008412670867, 0.3185759718768634, 0.6273984166353492, -0.8936910019923365, -0.8005568394910489, -0.8678226079133468, 0.3187617717889514, -0.362253253162643, -0.8511143202990802, 1.0158360555467507, -0.05917914711070509, 0.5684297918683368, -0.26764031044631603, 0.17649137207608306, -0.8370943971477344, 0.33673836771036875, 0.04707313832692814, 0.5114719632393667, -0.43697323284806616, -0.4676529106451409, 0.7655213628431445, 0.678951760121099, -0.29423182086055816, 0.4359193356755201, -0.23093949038610934, -0.4565763225747762, -0.18553474507072115, -0.2557832537186458, -0.3544629937732779, -0.7034933102693424, 0.16313882701150967, -0.2612247177253468, 0.5502983301264053, 0.3456356894810637, 1.1401951725020454, 0.05279336096001523, -0.7503793419262125, 0.4072144424981484, -0.177332311893266, -0.7394077627272169, -0.16284693074421047, 0.027246905996383772, 0.3879982437941179, -0.42939746157400976, 0.2527694108728389, -0.7409955970420514, -0.8490967136477615, 0.9404097233934043, 0.9090417536112207, -0.7045504374980215, -0.6854452811439875, -0.36281096132402424, -0.7833653234977205, 0.3193803006033953, -0.5275542385327602, -0.8123355636163339, 0.8806151985168035, -0.5087610244158415, -0.5435710038094584, -0.5683281171761976, 1.0699379634379442, 1.0394138040142762, -0.6007062531686254, 0.8703868106007598, -0.6748240733408534, 0.829438070942938, 0.054363592566115816, 0.6036166943505261, -0.47326308808033285, -0.7874673025072793, -0.49314617544342837, -0.6613719504125014, 0.6314080801381122, 0.11730556828204503, -0.7863164319752519, 0.8580981469819574, 0.09912910589907387, 1.0367977892062297, -0.8520447495841752, -0.6987498951319, 0.2844343003183093, -0.3362584937824146, -0.615303757809153, -0.08662987579072623, -0.03771974866561445, 0.7394590265160189, -0.8336450120210438, -0.25640791074982133, 0.14482822531005143, -0.3836129917326413, 0.1268575057913641, 1.0419736233667178, -0.6820572934177087, -0.23454353239870881, -0.1929388780058131, 0.9347131041757647, -0.6062646789604973, -0.07731449711473909, -0.39607579869851656, 0.9456719281888559, -0.363373113511479, 0.0993512663403168, 0.18675604379528368, 0.2557011406268551, 0.4822098529119745, -0.8778009657113225, -0.552045296644479, 0.5839349542433725, 1.0437083392594615, -0.3202640734554367, 0.10815121331147709, 0.9750140899601711, 0.05713589567696573, 0.6964622496196644, 0.4020562372843409, -0.3700837737067936, -0.07483454071050004, 0.46284926728997194, -0.9807349674953533, -0.43006264999105864, 0.7253427543504799, 0.5235905801509342, -0.9679791623600048, 0.7352209377594644, 0.4622006115322755, -0.5888349631814446, 0.2142171067925853, -0.7715134183761225, 0.6423558697559038, 0.215222788787975, 0.2936932606117421, -0.5661659928152248, 0.81744038575272, 0.2017986263876563, 0.2993482787111256, 0.5807208475829587, 0.6153242500240084, -0.7458336023744616, 0.48081769410610603, 0.2858175324216251, -0.1420453412198317, 1.064435778503698, -0.8333320770587617, 0.7019894717275836, 0.5785269185810097, 0.6337589331421164, 0.45204138880526934, -1.0111754744870416, 0.8016893729604914, -0.39114126821458184, 0.8470070648558238, 0.2793767923787183, 0.5033855539323505, -0.9049050951757167, 0.8011229979322012, -0.06144960695804661, 0.10353270986938627, -0.021972565807344187, -0.746801007532141, 0.800836500138913, -0.3921924020606902, 1.068659924758437, -0.6351711317104276, -0.08380890313146103, 1.0619388248881825, 0.42961304653325094, 0.12583942751165575, 0.2520095516038979, 0.1416992312690217, -0.6565090951196358, -0.6370093597071207, -0.008848294756844758, 0.34761574998071515, -0.5628664364317161, -0.3793242958534234, -0.48036449502477285, -0.5777609751435077, -0.1524939792024357, -5.963254434073708E-4, 0.014355350675383793, 0.011970539993089653, -0.09538996441639283, 0.581254177414211, 0.11848593814558053, -0.5062698053000312, 0.6039033221313214, -0.004770961293399978, -0.847569419575083, 0.7352002958123729, -0.2683739339278363, 0.2645683616810668, 0.7232052548243314, 1.0798068233308582, -0.5106569008433859, -0.8289667051446378, -0.1047523606563509, -0.5874105796756494, -0.6520847514038817, -1.0423669614674695, 0.23602298800325572, 0.6082596422892987, -0.6323015632602844, -0.192763334841728, -0.14950841762122613, -0.2952610677970804, 0.6797014009281801, -0.45358139846228096, 0.04258632810629977, 0.2787770486649661, -0.8581432073554597, 0.0899941810443556, -0.1921461207969693, -0.06300375858122038, -0.03381395075140293, -0.8519700951314274, 0.583771663880619, -0.9460189860946728, 0.07923015353131711, -0.5549768923931616, -0.5128192404240162, -0.2032512222985517, -0.35812660136489216, 0.14614970209880304, -1.017575950195, 0.508082678682015, -0.574473520849405, 0.5367296835858203, 0.9471339241321178, 0.5132094062299052, -0.9513870913349188, 0.025945545691794063, -0.8861701415786961, 0.7062291347202155, -0.6546510811101227, 0.08423920376665353, 0.19104937571373043, 0.20585983205939096, 0.20306480388443207, 0.6505282190633781, 0.5178665047703906, 0.30954351539917596, 0.49662413404306777, 0.48770103889299304, 0.1800695669813119, -0.3919412506223828, 0.6101605944377765, 0.5413209965160315, 0.3518868225174671, 0.048074041296107005, 0.43826240030984653, -0.5898405090386678, -0.16908431979577662, 0.10180003265064433, 0.6669321296366584, 0.7343249229304517, -0.01296144962446241, 0.4211089695582864, -0.489022050824941, -0.1932104514285971, -0.2437772456505927, -0.44865184837891575, -0.0728673837002402, -0.8847435803804388, -0.32130708851926765, -0.3026141237491993, 0.7797577476878307, -0.8873246701055444, 0.313377352078963, 0.4098037650695211, -0.9035690327680247, -0.0021247592072143186, -0.8052135263937329, 0.25521009699932345, 0.05212999420132743, 0.7057180578348926, 0.04175619406855395, -0.9210988210993297, 0.6970383929805155, -0.13024293003271883, -0.6460872877146283, -0.44215160328006825, -0.6572013260574541, 0.8424190556377774, 0.6342095709076282, 0.49497622896124976, 0.9567236005246904, -0.24427219698318145, -0.6164008530456574, -0.34700934176147774, -0.2709187590042807, -0.1493694959976859, -0.32967553949796374, -0.33048895927672767, -0.10232985702842722, 0.14883755389274603, 0.5479470767324652, -0.8202791914666882, 0.8535345318250065, -0.5128328379144131, -0.46538803286800456, -0.5200583672565922, -0.9775045292487585, 0.02665812955899802, -0.5904480225596369, 0.7522475793337536, -0.24513486858826003, -0.6898245727026855, 0.1482717452139095, 0.26355183911986363, -0.4251356733084871, -0.055557547784790676, -0.8663744772474018, -0.18928182631264492, 0.38390966942218124, -0.5191195909061915, 0.4949488888863615, -0.2698957732916389, -0.237891932461366, 0.41192745002799075, 0.6501074949193029, -0.5321572704865738, 0.08839501839799904, 0.14026918859157814, 0.6711746622652746, 0.17641141814462277, 0.06806683348915614, -0.7960424109402396, -0.44110352630800154, -0.45690490983322096, 0.6281638032344463, 0.27837223167032704, 0.7965209703237136, -0.11340579758281696, -0.5006235086309109, -0.8122020862543984, 0.8499673967221315, -0.5005435602502752, -0.5574698704929282, -0.2063021533577556, 0.30915795705543075, -0.015313665353777232, 0.012796201272562672, 0.505252374711717, 0.14436966391179726, 0.02103368380017126, -0.9993331691560428, 0.41767487959607585, 0.7789862523199717, -0.23488169344037796, 0.6508034445393489, -0.9098506142372773, 0.155055001044355, -0.6651951763461804, -0.20341037196104142, -0.18953002621495074, -0.15849204044330784, 0.9538034720158357, 0.6674477410048424, 0.696442098837175, 0.6660239270819208, 0.7160583008228686, 0.19699944183168835, -0.8108763940552437, 0.8078587024021721, 0.42683995901109173, -0.3756165756823326, 0.7793819062602532, -0.4059901959894315, 0.41208576079290504, -0.6587739213479374, 0.8965310566213972, -0.8266783330307028, -0.05306527125228629, -0.35317806368180504, 0.2062931001718885, -0.6467496703671028, 0.2149587380467073, 0.3398902527929735, -1.03847001200953, -0.8472658203075925, 0.6161093946684598, 0.05441168563718721, -0.5680891431817787, -0.0910384417194414, -0.22515663996701332, -0.4634112515569227, -0.5390292458518188, 0.503945297872175, -0.4348969006583332, 0.14011846598198596, 0.6331299468560524, 0.17863106750543725, -0.589633574168552, 0.08002869365216299, 0.5779897591717943, 0.7694655541919372, -0.01821130048608368, 0.43241681214923444, 0.6888042816921129, 0.5810140159839052, -0.059781495823787674, -0.6154049932524015, -0.4037866601903165, 0.5820311342222472, 1.0299965586156374, 0.8750327108118177, 0.1471317280486995, -0.06407231014813508, -0.128545792082916, 0.20609475031042984, 0.182040244629547, -0.3833977003218205, -0.9168151151728431, 0.7357586818135676, -0.4246774762731179, -0.508384289168763, -0.39068811035437895, -0.5103091286098995, -0.8843108812613366, -0.4598732977087857, 0.7624639424684487, -0.046537412883808804, -0.286590410679959, 0.4700154587632465, -0.8341491365997913, -0.7088521110817377, 0.2727228254193795, -0.5776641278471968, -0.35581293260164515, -0.3474598427536892, -0.5274780264238559, 0.6527805344197077, -0.6696743118590598, 0.7513014383133514, 0.34957231904195935, 0.06461756961411366, -0.20462828320635768, -0.7803821029455994, 0.9952072544054243, 0.18877859564056684, -0.974947444418684, 0.5016726060492764, -1.0526250562256863, 0.5473803367372321, 0.08132876247984767, 0.2317348510568066, -0.8346736387962643, 0.21029659725357808, -0.2611085213323691, 0.16318816049724022, -0.84887334301887, -0.5082540797605801, 0.5001372803179143, 0.4641783619427179, -0.4564377538773442, -0.37396965458466397, 0.6261235832088652, -0.24628255226838433, 0.8438158914584851, 0.675056661929296, -0.7069718139434247, 1.003856265255635, 0.7305303910162219, -0.41296507182087594, -0.4765095131579738, -0.301070356481108, 0.9961109579386717, 0.3148846929131467, 0.17689836494434186, 0.39346971629199384, 0.3707559650487348, 0.6606747981510422, 6.530885929766032E-4, 0.3515113532578533, 0.3978729496921912, -0.10410405097769576, 0.808084875652547, -1.0310570870627787, -0.9094219084605807, -0.3786767104306334, -0.8521063358082159, -0.10360597214331584, -0.980618153061984, -0.7560689300986968, 0.4209077556602148, 1.0038455967674174, 0.8704155464255078, -0.21982225040044354, 0.21419278602592548, -0.7471595749659872, -0.8577932169862977, -0.23953325175274165, 0.7624114537345513, 0.004740081081928331, 0.35766410273519217, 0.6238174318063096, 0.7360830865126509, 0.658847618522275, -0.831816651589624, -0.9688577870767701, 0.8592335426159144, -0.5658135933392505, 0.015335554197815246, -0.6655039144685617, -0.6595409593207285, 0.9578408624499206, 0.9084790500306409, 0.387932026201112, 0.8402928699265749, -0.472505595087949, 0.03827490246923757, -0.9568650450337444, -0.23977436776512856, 0.7832184848763107, -0.7591242659306019, 0.7893017896702315, 0.8993206707663066, 0.4518187765459394, 0.6231360724781311, 0.06265789378040763, -0.4365079806895226, 0.9035413031584217, 0.8614586761440182, -0.14068649370569117, -0.32717875690330406, 0.25552507916024875, -0.057012302215992336, 0.4971552402507316, 0.48126804988930233, 0.812171317411488, -0.8756883488511572, 0.97237690323845, -0.18397859839260694, 0.8974614441720465, 0.26272806032787976, 0.20710967263369737, 0.3068883490795955, 0.011228709177380199, -0.47372244199455127, -0.5124244552435716, -0.7367716243089232, 0.348749583912565, -0.8489667295276193, -1.0122848939866476, -0.3071919212035299, 0.7779564413336569, -0.7359485274822645, 0.8302898144450653, 0.705983610748393, 0.6232433356230827, -0.7322214698363718, -0.251547709035567, -0.4874786004391997, -0.7829982668273073, -0.9079980211641522, -0.7053083796018768, -0.6617970466973789, 0.26715484760262775, -0.9428975128799014, 0.5158591040896892, -0.1642204626447491, 0.18486334858113418, -0.7896539064573165, 0.6933382327881213, 0.9207439754571798, -0.7782826495673505, 0.7772797525514104, -0.6330144722695595, 0.22942372731073507, 1.0031344946116403, 0.08694971493952058, -0.15196847028718538, -0.1938395651494734, -0.7533287187676243, -0.6631852904152788, -0.62634653357848, 0.8436855840216662, 0.765025675946797, 0.14194289741828214, 0.8330443774788892, 0.7015123717142419, -0.32978549325345347, 0.7894513083383488, 0.21345060125429474, 0.3700874570178225, 0.5431299253551266, -0.40044301747373356, -0.7607182580990064, -0.41889269309379507, 0.657657930223694, -0.5159243260068838, 0.09744485040390029, 0.7354802862747454, -0.5666636100714028, -0.41797469272769416, 0.11329922782071217, -0.6262545916114657, -0.5220387459115806, -0.48770644604106145, 0.5001326865516008, -0.021092082173481987, 0.8335698104015155, -0.20757655637870612, -0.09617733974153708, -0.9415984975455102, 0.5137861318906228, -0.842257113695655, 0.5287842176295579, -0.6913956628647329, -0.2138857829585021, -0.320394837618611, -0.7030356836543503, 0.7393969332685958, 0.5499331952233474, -0.8552437656773296, -0.8120948804268321, 0.4529114599615537, 0.18194121577046246, 0.555956812060357, -0.5093832794120147, -0.19235341196415304, -0.0028916362409854715, 0.49787599033684343, 0.4888852866545563, 0.9079132269468879, 0.4877933771008515, 0.6049696804943892, -0.1327161817036866, -0.614971075304631, -1.0295179858686874, 0.6127016043444876, 0.08573724615982997, -0.05908736863116344, 0.31206039076458697, -0.09382261550148878, -0.3368863710482356, 0.6602972137069106, -0.3685202678522861, -0.9459688649737381, -0.038807085918948006, -0.1651131497591109, 1.0174335862240889, 0.1281192014945552, -0.8472388918179847, 0.5331749659702256, -0.5364804435938969, -0.8170905461464842, -0.4296644726342107, -0.09594840512290792, -0.5815221577175514, 0.7890861375891591, -0.5539521342408862, 0.6237687670335941, -0.8357983930196016, 0.4146766516741113, -0.4731101548434401, 0.37560486239565416, -0.21003614451181019, -0.16803228649096946, -0.06891929463400796, 0.41166942800214557, -0.8153446543935241, 0.4829258032279955, -0.1917104016274242, 0.8815184103657998, 0.5722023013999863, -0.5824577024252406, 0.1981759488853567, 0.19800472987342468, 0.966618181390078, 0.10189020272124569, 0.15919801833108854, 1.1552662871111303, 0.003737415062763831, 0.12025872442029382, 1.016480894463656, 0.9701770645431241, -0.8761555552790834, 0.032584366043712495, 0.8575233186607436, 0.19769995142515703, 0.02643772596359877, 0.48847330919916265, -0.8644518751768735, -0.05002415287910805, -0.05567791416218853, 0.505321123590339, 0.14002988445355977, -0.39020409905123576, -0.33289098665614447, -0.7250607706593963, 0.10117393679020406, 0.02647970239021591, -0.09951360095332097, 0.468004156545698, 0.9093175656774344, 0.5267317119556099, 0.4680559375248189, -0.8656437918871591, 0.38485917204550985, 0.7929712223146768, -0.2394651986102422, -0.44792656847660534, -0.8183705301092451, -0.3974969505223844, -0.4637174870310073, -0.5018309414093512, -0.7318524183194373, 0.5599279122508202, 0.23057423835337107, 0.9469333218618837, 0.7417196747581332, 0.5360779367164883, 0.5042453801334069, 0.6376414244135604, 0.9372252919993999, -0.06336596898298495, 0.5312300240398325, -0.17235959241989085, 0.40264168783602466, 0.5900023671372824, 0.7375256396223024, -0.7091370167513673, -0.5714114558625609, -0.7954454009523899, 0.4710354486882664, -0.053818465523423474, -0.7628352266024208, -0.18744632366234945, 0.37677569828839724, 0.062485735942033466, -0.41353238925356134, 0.7625346320436246, 0.536403686681715, 0.250572379078673, 0.9125129240242732, -0.36221679540470203, 1.0969845447482582, 0.28169520035050033, 0.5686194227296826, -0.32433010101324466, -0.0455569842870514, 0.02367021232625731, -0.3348373122303792, 0.8080305506841476, -1.016010636178027, 0.488941330806418, -0.421268764324693, -0.10773138305463846, -0.8101140686101714, -0.17143971324863458, 0.8518530337883399, 0.22671826904173994, 0.27462534166176844, -1.0652582571563982, -0.1476328604957561, -0.08792808048799453, -1.0516223194066416, 0.24752443219353495, -1.0303498578877865, 0.4111179328312245, 0.20823021978863132, 0.3835829007350915, -0.8620739192088174, 0.22688358557987778, 0.3614826682108284, -0.6178853951828148, 0.4506599468370006, 0.19780689939184762, 0.5892389049681571, 0.35649233648777, 0.8689801523950267, -0.37785896196822605, 0.37423157608303076, 0.8101080241024827, -0.3821525398649721, 0.8045618667740606, 0.8990373972400908, -0.00184155082712646, 0.8240510488228759, -0.1398392274303409, 0.6405405598171481, 0.3853811221106599, -0.5386280202743092, 0.40626781873820356, -0.616402762969048, -1.0563128962615598, 0.6821812375889739, -0.3496760032455228, 0.24740918123101113, 0.6544173960417261, 0.5706040552426979, -0.3095912743137027, 0.2869516237042495, 0.9353856388887166, 0.06227616382176942, -0.09022759037851637, 0.3054700447663581, -0.8529870080672979, -0.3952815859049515, 0.14428128030948095, 0.5941876147768328, -0.44983638148522076, 0.8052105846106581, 0.13621207944304056, -0.2446924080023935, -0.012558150483162403, -0.7876697152313649, 0.1222437954082859, 0.8448423187561054, 0.5017221136788471, 0.6518538162803217, -0.977013265771998, 0.8469712229966708, -0.35839104492898366, 0.13368007978359955, 0.3041356156203933, 0.6224060157075894, -1.0957564485811226, -0.9868242504592865, -0.05955374428611098, 0.3744973651893808, -0.7899974966442683, -0.49084151900679457, -0.4908857665485539, 0.546597375423602, -0.6566562125256734, -0.3659533692952656, 0.5128177398545675, -0.48708241497610744, -0.41120880835895085, -0.6776148083518048, -0.148544340758848, -0.2763504711099585, 0.35375531258890464, -0.13152071448022024, -0.49272603135227133, 0.15390451100487018, -0.8160642981040237, -0.14958271645508953, 0.39476315633547887, 0.9912583623604134, -0.015032979962011068, 0.7967249536462224, 0.15871042969124663, 0.1596138914266315, 0.5454263213103853, 0.5079240785665838, -0.49491174028826135, 0.1373460568050715, -0.6631306031592777, -0.6801532995474395, 0.016835542082485302, -0.6120851351877646, -0.3702310665891584, -0.9140363917872398, 0.05149993017768177, 0.22869228931395438, 0.30925485934764, 0.0960544218442081, 0.6590778728789107, -0.49023998116291484, -0.8713756298879408, 0.38693498674442023, -0.5410935788133255, -0.6900214709501218, 0.6704233366589304, 0.9125362181119231, -0.9452986858446053, -0.44783673582662903, -0.6881271805960498, -0.1693505644439811, 0.2628405798491175, 0.17326336348207805, 0.6422555537091392, -1.0377826047891812, 0.7529819322941729, -0.7186034343741686, -0.15968757201286193, -0.2735711859843719, -0.6294179238202079, 0.18105196675148408, -0.1113560258219335, -1.0203227864535043, 0.08910112188975067, -1.0303433863502418, -0.5881913731698784, 0.25014866151363546, -0.20413585677881643, 0.17920790841405304, 0.8350546935529475, 0.26798271755581404, -0.7858217247216466, -0.3069084145600027, 0.5486771733858214, 0.5740771515244552, -0.4390853118394334, -0.2085719830539933, 0.02947067712521734, 0.9186362721467388, 0.11571455490118968, 0.5569731800138963, -0.26746569794477293, -0.8335061007010051, 0.7535029544548809, -0.5639478865273041, -0.511294965054073, -0.5028274684720491, 0.8763200116893942, -0.6034853035757884, -0.12775753668841217, -0.9942501447202713, -0.9264750049760201, 0.18876033924509922, 0.3159603083786249, 0.7241757279205204, -0.03072932913835976, 0.072809556383973, -0.3226478558587603, -0.4524969526320279, 0.11664814973753734, -0.42382942190548956, -0.5213408837192591, -0.7687885412412144, 0.3741163416182353, 0.3930525878169118, -0.3420015108450053, 0.12775298416133937, 0.502088355267931, 0.651194480089184, -0.6146139743928447, 0.8591374231690335, -0.23374398052189338, -0.21131995034111514, -0.4660766973048583, -0.8900258575904668, 0.915432022744783, -0.147261369078109, 0.8364689328196541, 0.3460525901274277, -0.8271694098027852, -0.8665465459913865, 0.4323687197460729, 0.35952534190898905, -0.02702512833199879, 0.5533275029235698, -0.2501878541940269, -0.7890942394326469, -0.25858211014732524, -0.44752620431491735, -0.09089162556314553, -0.280202373068918, 0.4461418851100573, -0.9518887418048599, 0.6165319136840034, 0.7840221762980238, 0.9161273571547159, -0.6948796781740135, 0.8165385825157851, 0.2026986029310335, -0.04440867910780601, -0.3885221524328923, -0.38762021193277485, -0.452731642959367, 0.3927268508000034, -0.9281078727045718, -0.4181210971920732, -0.36314784529926186, 0.2710034872393191, -0.9123408470030978, -0.43963561529240763, 0.8604050757718029, -0.5162150867149714, -0.14439873598938058, -0.5899530042478086, 0.3671478316843647, 0.6560063220443145, 0.6138802880687366, 0.6867690811735401, 0.3074648796269531, -0.9690659816857207, -1.0415744979529122, -0.7328927444306362, 0.7980609683440161, -0.36058725088547544, 0.5335495732704826, 0.6491948562884924, 0.38102219015194616, 0.010821546999304286, -0.274925187273793, 0.6908611531393697, -0.3100112506307865, -0.7944574789222887, -0.1809047334461197, 0.9868440747259705, 0.1711433397806709, 0.858136958688033, 0.08614458348149277, 0.7678094911254014, 0.25311332844415335, -0.3129252478270841, 0.30748279781484095, -1.056496677801655, -0.09386252769074824, 0.04120982858533094, -0.8977889305004506, -0.28467738803938397, -0.2648369330223575, 0.3150377193856038, -0.8086629201958456, -0.7744204107032183, -0.900590263569467, 0.8478605376769554, 0.10603651069675216, 0.029990477829488427, -0.4941224489811643, 0.30503162497468933, -0.7634703787067715, -0.8149726539701353, 0.4266849874610712, -0.02986704361062099, -0.2020206630422767, 0.436183811529067, -0.11169718020955931, -0.30849857858840474, -0.5538382489639184, -0.07097258924338935, 0.702625270592534, 0.4714393578192979, 0.2607697155630461, 0.6977769504326338, 0.02209902770183139, 0.6754607213696935, -0.1624954586917413, 0.9186142200968265, 0.4806906386539124, -0.732676018783205, -0.5599622848232201, -0.9473557770559958, 0.2354189418175352, 0.9826717578371509, 0.09631649560543393, 0.3291144415504369, 0.01121887894095769, -0.2350259878777284, 0.6396976766297103, 0.15567208818567643, -0.28346827649052314, -0.6931250006505221, 0.8927182651827799, 0.4548752607548635, 0.14245317468639687, 0.5869333680862212, -0.21584862465653334, 0.5778917581429964, 0.7129453789065826, 0.9917899488432934, 0.9408906882292786, 0.8594464639466746, -0.9548212900427371, 0.3358338502859188, -0.5367327615640937, 0.14010887093830376, -0.0774097594061185, -0.7981413918119032, 0.8176990912734734, 0.5265018837268306, 0.7258009485039751, -0.44507631305837186, 0.7312651818597475, -0.34110179604882684, 0.9155744073922056, -0.6734909002603316, 0.7954528162969379, 0.2939724633017603, -0.8903194623250908, 0.628273425890982, 0.9369976565237371, -0.44545026510253805, 0.5340748019907888, 0.8386808182732487, 0.5106718702025295, -0.5327968262552554, 0.20039872048203514, -0.7304855974743731, 0.7744497704762209, 0.5282178091727681, -0.9966063292979189, -0.6497322059501555, 0.7260415841252431, 0.9219207376636125, -0.838720628266128, -0.5536732593936232, -0.024578359675105046, -0.17571091491549504, -0.14232069215401175, 0.08006350454930028, 0.021130967720515814, -0.4031519951227152, -0.2187049301310617, 0.33279153956792196, -0.20207133935536284, -0.7305691073301813, 0.398927144751129, 0.44545120786838927, -0.3737484707548207, -0.34503403675225874, 0.1822092063358084, 0.11213319620459346, 0.6919827403204082, -0.4437642974820523, -0.20868792709151035, 0.033712132476894495, 0.26358940136498044, 0.24118496722884633, -0.7557515003330266, 0.27162835963828297, 0.35469171787359105, 0.027129129632738315, 0.5168155449007563, 0.665842686122929, -0.7497574720158183, 0.14349635576108694, 0.6194195920999082, 0.24576507051202426, -0.4272825389588009, -0.5662736717336392, -0.6848986228486075, -0.22475266884969117, 0.6475679458540015, 0.2268834294270153, -0.22169261649860217, 0.9763470906179758, 0.027613210849034914, -0.1116196707279853, 0.30482932026834475, 0.8316040361953341, -0.24529920541120462, 0.966960848065597, -0.039314797675651145, 0.2530405720142326, 0.4240231128652034, 0.4601284759469296, -0.610874978292416, -0.9657800168651578, -0.26450212472389645, 0.9738411428606011, -0.5017961899503779, -0.5657983094597465, 0.16938448531622888, -0.3197075536504935, -0.305963392787132, -0.9867864952496325, 0.6760778361411789, 0.8252450352368843, -0.6206896191817096, -0.566797917467863, -0.0028750765289500936, 0.4293816729334534, 0.1319774015486338, -0.25031412770042644, -0.1601635401708798, -0.9187241564370305, 0.5055890354342555, 0.5143494199654528, -0.2919023521934115, -0.5771566545855269, -0.17752949941048496, 0.44857812534119074, 0.4283463155438594, -0.19192037374520307, 0.5110371752698525, 0.7936271829772892, -0.6104788813753477, -0.25304078214173564, -0.5706603907226803, -0.4161360647713481, 0.6266274594738486, -0.5117334473935394, 0.6004488268988315, -0.9876223277717711, -0.6548970848737208, -0.2895663064069483, -0.7921038362115229, -0.13992975600659674, -0.7637027424834448, -0.337080441749544, -0.6984502413045158, -0.511641728480472, 0.12338847945167036, -0.518631684177303, -0.1835467815387525, 0.3011501716408339, 0.6648679587429919, 0.14132308080889847, 0.5471407511676134, -0.22186333299680677, 0.8159073341034664, -0.26257402768490146, 0.6593982725356499, -0.804493083199387, 0.5787681495546853, 0.14557666316383364, -0.009321397644366576, -0.04182386282195353, -0.0012353096945797116, 0.7603154156885096, 0.7843885326880575, 0.11807349739717472, -0.011227916604640169, -0.7665052104589509, -0.011346431051393716, -0.9232526284436253, 0.5320972974910468, -0.7370525315187566, 0.16209753511810604, -0.22226338780785243, 0.08542049499816703, 0.36496269647894325, 0.1575851568676077, 0.6984479885426389, -0.37431146463255704, 0.40188305453622664, -0.6284121020376363, 0.901253916149217, 0.5920422350167232, -0.05316783027977249, 0.9159452294345102, 0.05450721408322754, 0.3104255300400822, -0.7878340660124479, 0.48795979102862286, -0.12981830261903013, 0.9239788440805439, 0.20829136816318444, -0.08857246885640546, -0.2718720898970216, 0.7306053285512314, -0.11241195758590038, 0.16818158153399518, -0.6476548288472807, -0.04885533781051936, -0.22582262369383005, -0.2173116042853998, -0.5852483415693137, 0.4444323809583185, 0.21510029393520422, 0.7852718178675081, 0.6557003426401598, 0.6555574933107937, 0.7726560735785576, 0.13962808219301925, -0.3170903813009657, -0.8562097343642862, 0.5768335318349144, -0.38334245050510185, -0.9677693797904716, 0.4693193670696359, -0.6620342214891898, -0.8150202440253904, 0.22949534896682505, -0.08156862285936466, -0.20476241530506448, 0.8918482576937232, -0.3689852016857363, 0.5716535043159511, 0.8545894676434923, 0.8971448860331946, -0.3850887646954941, -0.4494796342721293, 0.24456006346103315, -0.2907985076819087, 0.3692058422061613, -0.04896699554154248, -0.2109984952029894, 0.1725016299853622, -0.06872373923808538, 0.9031447842243021, -0.5198963042561338, -0.3702303333585517, 0.4141726737142802, 0.5080704172037953, 0.47648549673083457, 0.8678901936879043, 0.41584902276824615, 0.9442252508171384, -0.10849237893830797, 0.005326481959167081, -0.47784793619645, 0.002901088054329648, -0.29685923658391655, 0.12985180546540095, 0.45020054356493705, 0.43666474955060863, 0.5681796664213171, -0.18350895376723173, -0.039260948651687486, 0.12503634837235222, 0.4404764654800586, 0.9447833061048992, 0.9399635112998629, -0.17549605132962628, -0.14707887863829958, -0.976537232239369, -0.7926230371636103, -0.5382786490915142, 0.5627853397875975, -0.7003501150400389, -0.4537050427787015, 0.3725223215729267, -0.18326300735488357, -0.7309059867078592, 0.2132842270755828, -0.3143089982303371, 0.9388875878478293, 0.9037847090093218, -0.24212730822608391, 0.09691268044307608, 0.17596523481992044, -0.04089296331111738, 0.39225519384377083, -0.25927700184766483, -0.2757728865165532, 0.858311992596872, 0.26490111730944643, 0.5122964435259477, -0.20522149001564677, 0.5128848142907194, -0.8717623142566058, -0.7159986213118422, 0.18970723046953558, 0.18355247324878232, -0.3924880483142627, 0.7360089793000101, 0.3234881455971948, -0.21373749443221976, -0.0510523003194965, -0.7818720178027286, -0.019319088430173142, -0.3557115885989268, -0.40103040983323207, 0.005301727298899285, -0.8651068045285405, 0.49316348664291104, 0.17245709329390504, -0.42701212628666857, 0.11523143708479149, -0.23943485904234166, -0.5228376766486277, 0.13163236749582383, -0.8776432961277606, 0.6774132405513011, -0.8168362920166977, -0.45986109383532936, 0.6123202085141497, 0.4418235658984454, -0.7248041858539834, -0.06430927562063905, -0.5204795926134355, 0.9861682931496694, -0.846494333705767, 0.9493243640557052, 0.06321980365201409, 0.13455349900324812, -0.6203000348299953, 0.20193390596200103, 0.03996205499162933, 0.804018737287884, 0.30635557899562293, 0.9506319626581583, -0.9768697136865276, 0.9098955295195575, -0.25374965929996646, 0.1805198629366118, 0.2990192956075288, -0.9908408260938613, -0.4256301080471974, 0.2394641075551299, -0.43359154423995466, 0.40844524280453126, 0.7725367788632072, -0.7957390133476803, 0.7212589700426485, -0.5359646463063412, -0.20113279920806418, -0.4428813374180094, -0.1365300114816487, 0.06044150732256505, 0.2933255859274362, -0.5621940888483273, 0.4256069178473609, -0.05649939535457749, -0.7311639795987054, -0.17433959849173136, -0.872424592502674, -0.5291457147545517, -0.3475320788449483, 0.2897123333233108, -0.16197924358572818, -0.41333524918480136, -0.2890047509143874, -0.39003636229442423, 0.7567776769312451, -0.5956522219406155, 0.3611622719330545, -0.45213484609005367, -0.5602632160234701, 0.6360766933492494, -0.4098721092949814, 0.3001570171110363, 0.07810761667266897, 0.2873986042043352, -0.6939187270857576, 0.7711685343112071, 0.1994848852758243, 0.5552714425317247, -0.15299520281177484, -0.27988225485722656, -0.5056332330787717, -0.37265922360888365, 0.9833656251438401, 0.9731498024417831, -0.20973828747591158, -0.7605235018861515, -0.11875270931610837, -0.47229594325329133, 0.4241568364214022, 0.27715875972815873, -0.2684722071356895, -0.8684617221480493, -0.8128602162290197, 0.4217133055998738, -0.09801271993143688, 0.09502107875064619, -0.16485143704224514, -0.0676180164413305, -0.5605394302435147, 0.5679290238206943, 0.7562275137500533, 1.0024825525536443, 0.48298172817380125, -0.7324339456984199, -0.21211517900310176, 0.8162228934355613, 0.7218034016689524, 0.7460916237044641, -0.5576248431618354, 0.4327695790978356, 0.4703597819273788, -0.2927311055246895, 0.7891574470852716, 0.9287723473468464, 0.01742655259003768, 0.5160473187907421, -0.8568492383929963, 0.825920696882339, -0.9631260818174155, 0.17984760041722161, 0.33836571465550286, 0.8088317735462293, -0.3937635266417696, -0.6590824350971352, 0.8739699501650144, 0.9439007252264905, 0.01226868114980607, 0.4835424096355764, 0.48658743491880285, 0.17235668826408965, -0.006968922300021052, -0.44893761043664177, -0.17452427736917842, -0.2554500220987071, -0.6775443548698953, 0.40609470696399613, 0.8006805923583196, -0.5983473097830534, 0.6730974322913778, -0.8280990861138616, 0.9310269536466369, -0.3484365829891434, 0.6892737520576033, -0.5726684397761067, -0.4557896414324266, -0.7417411689025247, -0.275957052365578, -0.6506275930303382, -0.9789676326261385, 0.19658748181392485, -0.616854959183488, 0.5229501858834713, 0.4690519198645971, 0.753215909100315, -0.7725970748242041, 0.9294875454721425, 0.18189704979600796, -0.7919815488687119, 0.15784728032367154, -0.2398543711641628, -0.9895052088242565, -0.4347011610168172, -0.044788481379837604, -0.7987736982837937, -0.5906460672793488, -0.7975387814480591, 0.1988107925670007, 0.08277591941606309, 0.30264687258301354, -0.04873057732447275, -0.650172986376351, 0.38263136293261535, 0.17269510936480442, -0.8394699966479033, 0.23744517175480273, -0.002114422734936151, -0.18863078600927055, -0.4495690096859405, -0.7606812474171072, -0.14332109281482877, -0.01487980361379965, 0.33699846364026864, -0.3682651938316256, 0.515481703316459, -0.0018335326540026393, 0.9887622471998102, 0.2792181665104593, 0.7219740605584913, 0.5749238062051206, -0.7367885276038548, -0.4742129132189987, 0.044329800839977826, 0.7725142450939861, 0.6976162446470147, 0.576246599572679, -0.3470697852123174, -0.2426320193869545, -0.38400435485111256, 0.9352459846985703, -0.3754353136455058, 0.18478700621039276, -0.1199656629581679, 0.5013070374936829, -0.32928231453653384, 0.6325301937293074, -0.873728130250082, 0.9011295985860406, -0.7775221535328615, 0.14295043713185557, -0.9834005808290669, 0.15655358185706267, -0.18717514791202391, 0.17892780078386314, 0.16959204768710467, 0.5213860162174776, 0.43844174429927807, 0.5586618471923964, -0.1569200681905291, 0.45830178518858183, 0.27300089736856625, -0.12295893221144884, -0.77678233489755, 0.9613755350056508, -0.6813183952780032, -0.3031205831752418, -0.810727329738526, -0.6708984151710106, 0.019039138839087855, -0.5801675842516876, 0.8272271272427347, 0.30130292662707364, -0.3326504461778905, -0.8355124773208527, -0.3790318690399963, 0.9649914061987009, 0.45747288019146193, -0.8364747764747774, 0.25284985871394466, 0.3581328209120582, -0.42908430033289424, 0.33466714918851675, 0.2785552590246531, 0.6765052156061561, -0.8261590945841293, -0.6178587992363241, -0.49833816518494356, -0.7193907009201693, 0.49789891664420455, -0.3964011598312154, -0.1442253837359725, 0.24781864830606845, 0.28313062133658373, 0.9551607461688378, -0.16069309299512832, 0.05608551960769588, 0.6588239494665049, 0.26171014572835444, 0.07451808522980781, -0.6929398350319548, 0.42422463625096873, 0.5479402843187041, 0.47226993080113444, -0.2736823842356506, -0.9871707283525056, -0.5995453925385205, 0.632817595265442, 0.6875656966626901, -0.04743036267122207, -0.05885461361027275, -0.3944932455333559, 0.5102482117116491, 0.6556388934692827, 0.6704026074822779, -0.994669067434273, 0.26017517520009725, -0.6284161528667213, -0.4278544192811866, 0.47481392992954624, 0.5925920163093774, 0.9310623631016365, 0.27796633766953227, -0.9632138758120714, 0.19074090714258984, -0.4859391451792526, 0.9004315371242646, -0.4287898315460888, 0.7359214015643443, -0.039111973406365394, -0.007052105254883001, 0.6881102336723705, -0.8758680059364949, 0.5505046326886253, 0.7046212356071491, 0.6821200046620155, -0.48910761575258765, -0.01789121832150644, -0.3875919642892069, -0.08573932718732599, -0.7445919459158181, -0.675801666983134, 0.8944234407426916, 0.9336160852939982, 0.32713703964442736, 0.21386712081960169, -0.33197705158895635, 0.04511401047017012, 0.7748770422005999, -0.9026506900286956, -0.02877674840428787, -0.49498782258037693, 0.05190849333562466, 0.6043566668083283, -0.21737171380414202, 0.6240698973240117, 0.6676470433518079, 0.20505909559394073, 0.7102793415849732, 0.16286978356634407, -0.6516387070195502, 0.16957711029688774, 0.4588312677790765, 0.05099372605710078, -0.6846444583705638, 0.6776388505532542, -0.8314940786207751, -0.7247511205726285, -0.459837812495853, 0.2674352114955301, 0.7028440238421562, -0.9901668800336265, 0.9120515844336001, 0.36215910292840436, 0.633754117700271, -0.5086222645680445, -0.8175359840675265, -0.4207552383463121, 0.31749211720537546, 0.06182841294897855, 0.14828731895593217, 0.6030150584965812, 0.6166812230541698, -0.25864398097311675, 0.1374082439166952, 0.12360128010569665, 0.24928522797816605, -0.6526483324952463, 0.1718912167998821, -0.010445029207982168, -0.5308786329660853, 0.7112431895663083, -0.7474812541841268, 0.00790866451774019, 0.763382061545194, 0.7543963727135726, -0.7621438765934914, -0.778070198108279, -0.25729036868389726, -0.5385655284999932, 0.4968968148356419, -0.7135211328328461, -0.1264986133414889, -0.4768757392197927, 0.09071523688291885, 0.6458300388592286, -0.1118572125655963, -0.6376957235964946, 0.6923211524414545, -0.3302737119065775, 0.8342617906944323, 0.6702632741266108, 0.5174436416193496, 0.48433287895133303, 0.4058939074740168, 0.0031038043246897082, 0.6660852261992829, -0.5673571151969123, 0.10534794390590661, 0.18452317325555403, 0.08441192043324854, 0.30922114710796705, -0.9691095924898644, 0.23898706813742324, -0.09653750432897759, -0.7956404665000959, -0.4589479664338495, -0.6551357503224005, 0.4713286834192954, 0.7813781645209106, 0.06066121564518145, 0.03483480070336683, -0.42650229277711765, -0.9641414904285515, -0.7543271813691066, -0.8767099537290785, -0.5610790005207409, -0.7890250193949214, -0.567605966170415, -0.7215136459040807, -0.9495524376158907, -0.5401730434724359, -0.10343226178215208, 0.0685275721066118, 0.8795864976149482, 0.9741731863185837, -0.34095202210392705, 0.23181835115918784, -0.23970892017054105, -0.08068518701083063, -0.054385093082522054, -0.37647189616758525, -0.05092528861374038, -0.6669006979771545, -0.7997117104156533, 0.7690462970827869, 0.4437718831955605, 0.2232980466674224, -0.5501597480732776, -0.7917335971511961, 0.7177740433020381, 0.672526626720911, -0.6082529851373449, 0.0711932407863547, 0.687954018760331, -0.5551306417293788, 0.9791952954807266, 0.05548535203169518, 0.34333321656942484, 0.7120344032732219, 0.520869402047557, 0.9445914524679347, -0.13219550595035587, 0.9593006166782184, 0.39126658805256764, -0.8243504256742482, 0.24101872118154918, -0.2668350651276103, -0.8273437392039095, -0.5621001133915249, -0.6904712177032511, -0.9824806813784995, 0.8997649157127656, -0.5791596471336403, -0.7512622628750976, -0.6284321783173782, -0.5857841180638307, 0.8942300611094711, -0.21118005916612528, 0.49154299657888106, 0.16694084513857135, -0.04483121801026863, 0.20214071118079455, -0.02521004289989112, 0.9499860325877159, 0.12649333785553832, -0.8060953056995557, 0.2281056359086893, 0.8914599937931388, 0.15274905313848897, -0.048972052421755, 0.09285657882457303, -0.17940967921306988, -0.13933941104453695, -0.48843332768957126, 0.6940666756805578, -0.3405042411633229, 0.266981529329426, -0.7306870871548894, 0.1420164147343369, -0.22095341300548066, 0.1476336288810224, 0.9342121650815631, -0.6882033522917169, -0.49728347368314657, 0.8623654334205949, -0.32063271060934345, 0.792364221104534, 0.9244136808468647, -0.148947946288595, -0.7845428249329369, -0.8723091725289396, -0.1179035687501012, -0.6942959195046204, 0.5728197032670345, -0.9317219664508494, 0.6983883268933516, -0.06755251883945157, -0.9059686468137411, -0.7594134756524638, 0.5768069422895188, 0.34332525807338987, 0.7002638476860332, -0.25016310243717116, 0.8367454812371985, 0.642809313362286, 0.9411032543225697, -0.31691112629353885, 0.2380130222892693, 0.1037859767885518, 0.4449117785847593, 0.09265563615785469, 0.3990004434425513, -0.6508901117020005, 0.4479230652159909, 0.1403658653627468, -0.9371727002071251, -0.4782145462291662, -0.07307802168206186, 0.436868356098574, -0.5225203535645403, 0.09212897596863871, -0.5493994902427712, 0.17044391383225543, -0.7080840057656791, -0.5259688250504501, 0.30199723359171005, -0.32234472218690163, 0.6586084374476197, 0.5969733790984318, 0.7516854467219547, -0.6701005136333631, 0.02513717763942639, 0.661872245865277, 0.3436834282303321, -0.800665408166492, -0.14799689333781152, 0.8470327323351385, 0.046871600945920265, -0.08270886423746521, -0.8936339144461307, -0.42657467595620074, 0.708167976378515, -0.7225006171134081, 0.6023727718192312, -0.05818186260998234, 0.8185926843277591, -0.3006603527658107, -0.4681924522364686, 0.5217224619276365, 0.9421772132379876, 0.5368727721908967, 0.49870112745500095, 0.3564609396614527, 0.2583628553769043, 0.3076636958788684, 0.09288969695873893, 0.05231052530908577, 0.5861496862017185, -0.5886885307027503, 0.7139496578651595, -0.7014652669215615, -0.893976976417247, -0.3092007467500654, 0.7409124847768712, 0.7585067512050744, 0.473261072834202, -0.7578761867105909, 0.35313293562868064, -0.7093609057175869, 0.4883829204439887, -0.662077991121886, -0.5717794074031872, -0.17878365329299245, 0.6109673872978774, 0.9822868373605315, -0.33359596171659656, 0.6825519399352685, -0.36579467724507764, -0.35398955040657865, -0.1261605881029411, 0.29205204067257035, -0.28533244526634527, 0.12902987891753323, 0.7712833803291337, -0.7554722535796669, 0.5283685174543221, -0.8956836271123086, -0.022198295202886745, -0.6018902797897935, -0.25395047667967935, 0.8034920531656621, 0.9186711833302673, 0.484987444797746, 0.38543201623709444, -0.28170391951637086, -0.635978393014791, 0.9088555329787492, -0.453189725768507, 0.6297243782540702, -0.03289752619165165, 0.8739259734183402, -0.9668649237221515, -0.6835258810951645, 0.7980696161524178, 0.8865264954952511, -0.03230744110424893, 0.3741235330786515, 0.12424074950362422, 0.6335276691588198, -0.9357970410028797, 0.1967574752309937, 0.9321319565194511, 0.8313384847020052, -0.44926408420147684, 0.9720407275900504, 0.618882191735853, -0.7115923072247857, 0.8622235138528118, -0.2687884686618237, 0.12762790228468288, 0.5156791169777323, 0.12698572911134237, 0.8543447746436476, 0.30354020541895027, -0.43018129834551627, -0.6810960333724858, -0.6418605535866044, -0.21171271868594332, -0.4764704854163198, 0.412509560942331, -0.7678827543700137, -0.1131154206071019, -0.09633138253902096, -0.6095005039464427, 0.6285013424196014, -0.019253786475546777, 0.8344369965450045, 0.005495334772148121, -0.7038721408900721, -0.1701318796387604, 0.10945995087602199, 0.3241226613963605, -0.25757179610849423, 0.8029988728875292, 0.4668284216293218, 0.8476308159589862, -0.036816506691800595, 0.5890512584162467, -0.4742339108226685, 0.6642966725528094, 0.19363630030142998, -0.7919991763983752, -0.555716865877825, -0.499029977398117, -0.9278344737441983, 0.18282923879393725, -0.8702932814798947, 0.8466719211868481, -0.033868293672285325, -0.22177475935385635, -0.8418961922980555, 0.3343912669794865, -0.29815365857233606, 0.8064631186922571, -0.0849895805029123, 0.5539973080459727, -0.058464801706343925, 0.16497460667821717, -0.6025985652606668, 0.014952965761648321, -0.44248585353236297, 0.5100188652967603, 0.12455737613077318, 0.6366681683026258, 0.9431066767722118, 0.7002009089337581, -0.8910472047665554, 0.3693116471462076, 0.053025511110825256, 0.6317200783927465, 0.5699653680868404, -0.27302593627256533, -0.940007309677168, -0.13865537502840924, 0.1404083999388436, 0.9656267175101807, 0.014203160062071783, -0.03781172932320831, -0.39638876748807633, 0.3385475993982026, -0.3418474648363282, 0.09001491453525329, -0.9760557472664643, -0.4811841834626735, -0.35833443706862855, -0.6468673003149544, -0.0059918831676013746, -0.36254648401891826, 0.7834839568765071, 0.6971596197111875, 0.10348443665341209, 0.4992856106366566, 0.7217261659818401, 0.8232185796728032, 0.33861178839326384, 0.6942816514215994, -0.6660763877876217, -0.6718462006039154, 0.019847901085442814, -0.9803531174800547, -0.33689166232720885, -0.21470775985891152, 0.18549892733308831, 0.32129022319698347, -0.3098660473283083, -0.29892469910824687, -0.13811787042697424, -0.6575118574851745, 0.32451342068158295, -0.5600683122504142, 0.4839586857980998, 0.40995081046616766, -0.7625481330831263, 0.1461519398123066, 0.025959576248409506, 0.4344650893227835, 0.4422052146348778, -0.8646875584870671, -0.49697641215468935, -0.900386849731361, -1.174030894529994, -0.9618782153833322, 0.6666645403409021, 0.6278945318240052, 0.18018257509732244, -0.24067562876761392, -0.547333044980596, 0.5620679713943021, 0.39762118585848655, -0.3384328375104784, -0.05631964170236142, 0.09304381412412405, 0.5985050620541769, 0.33182826565584383, -0.6467022466417417, -0.3031621272107158, 0.8699515489373266, 0.6721615499948637, -1.09116775724838, -0.059339541204945806, 0.23694270132808545, -0.43337594030606963, -0.07634179010803269, -0.3539968208496118, 0.2543127855890409, -0.135889757134711, 0.061779486086146015, 0.03708337258849774, -0.25420114931020027, -0.3843223639295681, -0.29298776839891844, -1.0320767739999914, 0.6781177309292648, 0.7498890592791403, -0.7617888389559752, -0.7007449359559915, -0.9821354775481693, -0.5973915579552493, 0.33552939851440816, 0.3332586380162747, -0.7661948012766595, 0.6792562285555721, 0.38953086016751726, 0.14883436910719872, 0.4045467973330153, 0.5147078413498001, 0.8343054809186325, -0.46344793193925654, 0.425423927817972, -0.3866245886170864, -0.46341284734008814, 0.42436207764133005, -0.2634452724892379, -0.0872222265936904, -0.6884513426161664, -0.809285992307842, 0.2310302838126869, 0.9520710003066929, 0.5665704579114471, -0.032690597998672466, 0.14291110859179587, -0.899055019045112, -0.5839507994802249, 0.8558112694496097, -0.7619396287825482, 0.8588312409233071, 0.0823811761776495, 0.1666731161157461, -0.7124302865375947, 0.3453424322285563, -0.7373472128038558, -1.0944006506290862, 0.657689000701732, 0.6975400004949857, 0.1503212236758951, 0.18031236559675365, -0.4397273480328461, -0.3293928963731437, 0.2515552480919069, 0.9270743803886172, 0.3027719118803567, -0.16589637117040507, 0.29607292501307575, 0.2791229438573344, -0.9910492166467313, 0.3753266850394883, -0.5205340660043238, 0.13559618282758693, -0.02611765409897374, -0.9597590176989139, 0.4657368596746505, -0.45389384224476587, 0.8298018409823769, 0.2023950318170716, -1.0178992376825522, 0.5392781982865932, -0.9536011671438865, 0.612801082708901, -0.5713183001704927, 0.1751264667305602, -0.43730883299907125, -0.8230202414861719, -0.013476956262636862, -0.4753292975630532, -0.18639489983990562, -0.05101912720113037, -0.8134118136724736, -0.6973922760369117, 0.3897906685837934, 0.3046604079130354, -0.2114169127410648, 0.8916510930091012, -0.7081449933238805, 0.6915643049609851, -0.7786551802471797, -0.9110692279898297, -0.49994174397379926, -0.7803295687730647, -0.11897325130713873, 0.7438329446923275, -0.8383357431242261, 0.3795800559707658, -0.7377044848833356, 0.8727532393667892, 0.04049640911308223, -0.814790257474146, -0.39592488694834443, -0.16692157537559077, 0.3145962647186581, -0.02242049067364234, -0.8527802821071971, 0.7398842062603724, 0.4761073938989141, -0.8547896514507863, 0.06454876287572577, -0.41490443085812956, -0.9767283481129959, -0.30162233175441466, -0.3252695016593359, -0.6467542951033067, -0.6273832040244071, -0.7352772364607375, 0.008087384212300314, -0.9197336051259009, -0.11891381408903708, -0.7380446591877896, 0.4752809028622538, -0.29523984497614975, -0.7205377870190951, 0.5971983075134222, -0.9744579972312077, -0.5666259119094983, 0.8680395231125351, -0.9183377095582778, 0.8926774863283747, 0.793823823090982, 0.3629995249076044, -0.7167112081376535, 0.3164603930243499, 0.2033644397247577, 0.11916436865335835, -0.3161389163875697, 0.463369829329036, -0.4330021248281996, -0.08792352477772994, 0.3546431276880913, -0.12186224684397808, -0.6072931822606771, -0.19737861664350007, -0.6400620611228249, -0.24681490735105438, -0.6344011978256688, -0.3934344492857594, -0.588109407253174, 0.4415429578246289, 0.2101292844809907, 0.8462543232469201, -0.22201775060834597, 0.10190514290655704, -0.07577081318208666, -0.4683768360432615, -0.9242269435492295, -0.10587636204159442, 0.537835588070722, 0.5328531333893248, 0.12049871857198392, -0.6140120605020084, 0.861381936864683, -0.9819746511747124, 0.7384715865420121, 0.17947544019171538, 0.9636573558317533, -0.41673344322486966, -0.7263136531632495, -0.6825255897994003, -0.14203355794426192, -0.06866288593227277, -0.29081837425951396, 0.29596103531364293, 0.7751183975448973, 0.7490750975368954, 0.2801829064906863, -0.4533748698438046, -1.092475390626271, -0.6038909009370611, 0.5590348220525816, -0.9374909054629812, 0.5403912518104914, -0.7671243725862551, 0.5755710844446983, -0.4603759832194747, -0.03460216337693296, 0.6097115248834106, -0.63856312676192, 0.6519425270277341, 0.37768410501925975, -1.0828586031416472, 0.4130518508725894, -0.6092725131939509, -0.11896898170788263, -0.9366230577177886, -0.8823699281841753, 0.20143970126897331, 0.4145056262492338, 0.28884592671223297, 8.722779255192473E-4, 0.2715739647940576, -0.5681513798654898, 0.3705156543494899, -0.9645526981874875, -0.020514659274047137, 0.8625769735354079, -0.01134130982849867, 0.5841821745810023, 0.3885505089968548, 0.10404685068346156, -0.025937544816657034, -0.8434057018458446, -0.5742327473257905, -0.736460309830261, -0.6802101213729944, 0.5254864257118245, 0.0012731947724539225, 0.3788368154279528, -0.5649310702769469, 0.16784202226529307, 0.8383767270626786, 0.2999164365922427, 0.49324049179437096, 0.8509467921798965, -0.3317215766394585, 0.6835241310691923, 0.6364739937311572, 0.37722234478220923, 0.6265265017254593, -0.976906873864905, 0.2276804635774878, -0.13100690136555776, -0.10612808060706504, -0.003619310273255749, -0.05027416299903069, -0.2897949337056632, 0.8224853301693689, 0.07463429526515764, 0.7647014075602321, -0.6845598051392145, -0.711597033636706, -0.7102894304030504, -0.8635615633299563, -0.014677971629160697, -1.2550519187905271, -0.6645383258914866, 0.11851495521811664, -0.2770028043421871, -0.2856891439002924, 0.747852912739232, 0.5472719884060167, 0.6518459910656105, -0.7250633564830905, -0.2033222927365088, -0.5652880313996028, -0.496731055180975, -0.036682965041096555, -0.4511362001107079, 0.058887866951122574, 0.5152481976359385, -0.41817413494603456, -0.8889820367238328, -0.7382976337219905, -0.3001773114139194, 0.9392027135587196, -0.5496880367085898, 0.23947219088670416, -0.1343640793837724, -0.04746434528079847, 0.2199356300403424, 0.46341498063838304, 0.3225149424407392, -0.28725735822251475, 0.3797064201682314, -0.2951439950813973, -0.5581417945814525, -0.8696429929823394, -0.9853371803973956, -0.2288323999454645, -0.18622480840450123, 0.5907062719141442, 0.5753317121144296, -0.8649852108629041, -0.36382385971099007, 0.2806975577002401, -0.08403656301966561, 0.6643592694063041, 0.6339320456092463, -0.615727686775295, 0.8932584571237658, -0.9049781751646099, 0.6025717853002043, -0.20692137764415997, -0.3515397435427155, 0.18626207031603798, 0.7086926220762416, 0.6100127268992318, 0.38624310671438733, -0.7858301449567973, 1.006622217699373, -0.38974944219396523, -0.4581975066806902, -0.9476029983171202, 0.28611586147516777, -0.7906737922706685, 0.4745658100485513, -0.757435456107336, 0.6228777430169803, -0.4391350199240599, 0.06464940083799973, 0.16145216516887032, -0.21496193157969024, 0.8877786258152331, -0.7321374100641331, 0.4017748410965655, 0.47921784227689673, 0.7677595084692361, -0.41612933498254684, 0.8892345303894709, 0.39145404693559877, 0.6036744750851943, -0.9057669517132292, -0.12921332233588834, 0.14333515033209163, -0.48541881791242136, 0.031670879476697514, 0.9480262988528283, 0.24754593848987444, 0.5915669740848165, -0.10817494475828776, -0.6271628343018991, -0.681136360659556, -0.834660578239123, 0.7707525417372169, -0.25444062085693814, 0.3647323408095317, 0.17471840261111612, 0.23709742838941386, -0.18419173309315573, 0.5099206797473349, -0.1120814319334086, -0.4721254109001422, -0.047575051107165006, 0.37455574834859234, -0.404092582923293, -0.42202954969014683, -0.9896553292245558, -0.10778382273128742, 0.45354701630567873, 0.655461067917915, 0.7219073482971832, -0.2761406569314364, -0.7302645126827952, -0.07040042259672352, 0.684151171000946, -0.3134993731134172, -0.5892134649471096, -0.7034877794843035, -0.9016680172422986, 0.007689191996789793, -0.4038263381844264, 0.2064254977673426, -0.5017207916840345, -0.5668943261104228, -0.5892366126660624, 0.1503178514753369, -0.2401331748433565, -0.29457577468746104, 0.9473121630499949, -0.3911538074968635, -0.48859028112680153, 0.8912392291156971, -0.17408528566610532, -0.47185468122109486, -0.8303316129771872, -0.09144815230717256, 0.20175515919923342, 0.8174190331824707, -0.7054613817904184, -0.06342335085884739, -0.9338918160066131, 0.9075993585082569, 0.9975379571241126, 0.8674840336519726, -0.6468096139185072, 0.11859625241363807, 0.21095919479740066, 0.19164317762532074, -0.3618735620265733, -0.22935233598087246, 0.9900161751054697, 0.7169729907814438, 0.3009313721481714, -0.3058612743304119, -0.19972593857150064, -0.3189346597984264, -0.69298032152596, 0.528155136003232, 0.174028994406725, 0.6555056419030092, 0.6219911837062246, -0.12198645663466669, -0.38561598378191475, 0.6777218970261579, 0.11182032576144085, 0.1128019546252501, 0.14094736026558408, -0.009852853181133558, -0.20246336923830419, 6.943261791533016E-4, 0.3152792791520261, 0.18927556766102754, 0.5135778899691286, -0.5511836567483398, -0.21955802316015577, -0.2423595860599997, -0.9085914293308293, 0.7684331559534394, 0.02000082033646701, -0.8130535393249064, -0.4608758598400257, -0.7773690698470599, 0.4002198844687771, -0.5799124058279906, -0.4891508248547, -0.937838771919029, -0.7914879530603587, -0.2519949864724065, 0.18809783271254382, 0.22141772333850024, 0.32548207635968873, 0.5766146272458983, -0.16614228228198413, 1.0944014426895237, 1.0093833828941563, 0.7822466658190566, 0.32976499036446677, -0.8430231062312769, -0.27335763989710354, -0.05460815186619024, -0.8053144051080177, -0.2112020946038154, 0.9336788867021801, -0.7201791981186868, -0.020689213113112028, -0.30417630906278187, -0.5821094667011701, -0.8113753973919496, -0.5597738075779173, 0.6676321561629228, -0.6406534950879736, 0.8674066968276652, 0.6772570097164734, 0.3194432971711411, -0.09344732555458224, -0.6464007744085929, -0.3522270198558243, 0.7616690623874853, 0.864531335880811, 0.7206088705779511, 0.6941161668632795, 0.46938077367694053, -0.5616028252363844, 0.14759019788258318, 0.593616442650557, -0.20936382405016515, -0.0680062021351291, 0.533859212070627, 0.7206030070684197, 0.6838746085311627, 0.9605483278584254, 0.34541798960784764, 0.8416372353836697, -0.8609488869118133, 0.9974447995684007, -0.9283345460972446, 0.4851676399115782, -0.8466448455212948, 0.4880625492115228, 0.32876691995854196, -0.7190737103465451, -0.9504082078788068, 0.20971001726622784, 0.9807549074346715, 0.18169876392894244, -0.7637199465750144, -0.12980907956604498, -0.143797198920544, 0.1540626448053912, 0.29746460414208487, 0.6950416381279254, -0.6770020353124238, -0.09531082668910293, -0.7088376414056669, -0.8309359483273987, 0.2811276211653414, 0.7765336510860402, -0.3994103434905483, 1.0617582906596366, -0.8573792621274278, -0.6391807130031912, 0.8804762982714548, 0.09278325889964874, -0.15274031429071847, 0.7141074254095177, -0.08154229653662683, 0.16426844552045722, -0.5043173969395947, -0.6812426258922589, -0.5640827294440195, 0.34814563618075617, -0.6795459249010796, 0.7087992004133736, 0.7545720136902264, -0.6760805382329831, -0.8076660336321453, 0.4958243581251497, 0.22336554803262534, 0.5127667343974023, -0.5473101083875365, -0.15120121690483693, 0.8116933639726148, 0.26134242129027857, -0.37479836548315437, 0.3020267910054872, 0.04837232652367621, -0.24579519568237243, -0.20633348228668077, -0.9183991432713821, -0.5940391229130063, -0.7387653008216417, 0.6404838455919978, -0.11761577811839027, -0.16672862048699408, -0.2120470142897814, -0.3921043457522382, 0.04597986814508994, 0.5928115687076434, -0.9919046587158021, -0.07881536400180486, -0.18835000472452817, -0.5794816244069202, -0.42558434086994384, -0.6054168941166379, -0.8017978954772598, 0.9182181856054015, -0.7621060155145484, -0.31532396787797, 0.16825171626893454, -0.8877406172239153, -0.7799731217382702, 0.9053729855441838, 0.8883447352997643, -0.5415702816528736, -0.22137774727824044, -0.2193399781108577, 0.6005895881337562, 0.15344728187695925, -0.8997466668372706, 0.734859859709618, -0.5318819778147668, -0.7261642945996902, -0.9043276485923726, -0.7146913155763467, -0.7090673449425795, 0.2825876136925512, 0.7961266203715334, -0.42198136059965696, 1.136090251411341, -0.22171662834660938, 0.5722247919497615, 0.9945547257713998, -0.11762097606228801, -0.4229296463844945, -0.04369761981748844, 0.11809196155144618, 0.27614335015756863, 0.7430650175455856, 1.0320966651307208, 0.34894422573596734, 1.0522354720303795, -0.5083565232981975, -0.1513278900403086, -0.8480469130831488, -0.6835319254713789, 0.41011574296278785, -0.19719332064125064, 0.9638842328267867, 0.48910473364700796, -0.9022736049051673, 1.0832426605006662, 1.0789290300144283, -0.25996618164083685, -0.38825479639692045, -0.2203572705836994, 1.0090248373337072, 0.5621331128244965, 0.6909609090719929, 0.31312302737563436, -0.6078221232767643, -0.07628939255498264, 0.7952476313841498, -0.19777997581705828, 0.6847729076321104, -0.4012546227770089, 1.014255738896666, -0.4811850645556731, -0.8972847467652199, 0.00995021704865947, 0.9930922212695198, 0.2509265031575081, -0.4241484747376199, 0.6732358590072309, -0.21909338654199192, -0.08583361093636106, -0.6330396668256518, -1.001487047284257, -0.789903315595191, 0.30339517590064524, 0.7296121217235501, 0.1934088750665582, -0.2504275808885137, 0.21014133119285075, -0.5142255471247719, -0.5902462944400421, 0.05394541989903038, 0.9530289344809085, -0.5027579978946477, 0.384085212048194, 0.9429755947698012, 0.6064567121436742, 0.25339814631849716, 0.5420765044110327, 0.9527799088402721, -0.7432186745549108, -0.3971255805789831, -0.9670593137877057, 0.2294097929980894, -0.33263042549115324, 0.15845196578450246, 1.0594480940536632, -0.27777705188964164, -0.7453270679944549, -0.3308156463309587, -0.2792211434768052, -0.10527699657738084, -0.5904546587248168, -0.09371573587781516, -0.8871948835500125, 0.0301433796269369, 0.5508023083168553, -0.0799355821340019, 0.7632611431059372, -0.7745546292882006, 0.18443838210516925, 0.8491606786431495, 0.8588692128540837, -0.26659190930189464, -0.15273437556490543, -0.8610545420848547, -0.395797567803945, 0.3432378453298507, 0.38017022437653886, 0.9065739556121446, -0.7120626823829558, 0.18658841163628262, 0.9533202196064704, -0.22951842166378142, -0.3236259584888724, -0.937616701012177, -0.608697157652218, -0.3253995755456568, 0.2392557574984373, -0.3729309036554154, -0.40829001695622236, 0.9547501387831163, 0.03870583610543586, 0.9525301046796716, -0.25726700476636577, 0.9066833321286383, -0.41928335498143804, 0.5961047587820126, 0.835526084336109, -0.03311068330132724, 